{"1": {"scales_p1": [1.3420988321304321, 0.8320164084434509, 0.8986267447471619, 1.177099347114563, 1.0940133333206177, 1.3571853637695312, 1.1010074615478516, 0.7362000942230225, 0.7789404988288879, 0.9778670072555542, 0.8867631554603577, 0.846883237361908, 1.0392452478408813, 1.1975661516189575, 0.8074634671211243, 1.4168964624404907, 1.210585117340088, 1.1777334213256836, 0.8179842233657837, 1.1070607900619507], "scales_p2": [0.8932332992553711, 0.9949591755867004, 0.5785365700721741, 0.8212944269180298, 0.7422028183937073, 0.9285604953765869, 0.8895158171653748, 0.7271966934204102, 0.7932581901550293, 0.7245385646820068, 0.7469305992126465, 0.8384978175163269, 0.9730209708213806, 1.0, 0.9386513829231262, 0.8212756514549255, 0.7430575489997864, 0.8675124049186707, 0.981536865234375, 0.8602685928344727, 0.8553004860877991, 0.7809122800827026, 0.6688394546508789, 1.0, 1.0, 0.9778670072555542, 0.8064029216766357, 0.8520168662071228, 0.8493106961250305, 1.0150128602981567, 0.9752079248428345, 1.005990982055664, 0.9047643542289734, 0.7616336345672607, 0.8521016240119934, 0.873946487903595, 0.9662088751792908, 0.8639925718307495, 0.7695732712745667, 0.8854871988296509, 0.9132342338562012, 1.0019434690475464, 0.9113750457763672, 0.8203762173652649, 0.8552653789520264, 1.0, 0.7986698150634766, 0.6592357754707336, 0.9981695413589478, 0.9731533527374268], "conv_weights": [[[[0.034779977053403854, 0.20358508825302124, -0.35836976766586304, -0.23404212296009064, -0.04701529070734978], [0.025174515321850777, 0.19085103273391724, 0.15659959614276886, -0.17253504693508148, -0.2396511733531952], [-0.030204065144062042, 0.08668225258588791, 0.3489978611469269, -0.14026455581188202, -0.15570250153541565], [-0.12589655816555023, 0.16670732200145721, 0.35024014115333557, 0.13295148313045502, -0.03307412564754486], [-0.13539208471775055, -0.30663150548934937, -0.07788768410682678, 0.22128504514694214, 0.18829886615276337]]], [[[0.05267225578427315, 0.17599070072174072, 0.10251859575510025, -0.4016641080379486, -0.015734944492578506], [-0.42785921692848206, 0.05306384712457657, 0.12008389830589294, 0.18911902606487274, 0.18759144842624664], [-0.18474222719669342, -0.06680116802453995, -0.2910231649875641, -0.03734193369746208, -0.153971329331398], [-0.13823415338993073, -0.037650059908628464, -0.011705800890922546, -0.110103540122509, 0.04124176874756813], [0.09335378557443619, 0.13262155652046204, -0.2709936499595642, 0.04628637060523033, -0.26727747917175293]]], [[[-0.23867003619670868, -0.1367570012807846, -0.03881509229540825, 0.03136950731277466, -0.23237332701683044], [0.11670174449682236, 0.06674636900424957, 0.09436037391424179, 0.11680445820093155, -0.32968655228614807], [-0.13731543719768524, -0.187737375497818, 0.043223194777965546, -0.07028800249099731, -0.16513106226921082], [0.18043571710586548, -0.06461362540721893, -0.20682884752750397, -0.08879099786281586, 0.1346956491470337], [0.31020113825798035, 0.2522883415222168, 0.31175047159194946, 0.3144131898880005, -0.0748043805360794]]], [[[0.04001108556985855, -0.025695981457829475, -0.1451103836297989, 0.15871068835258484, 0.0036866075824946165], [0.11145666986703873, 0.03934932500123978, -0.29633209109306335, 0.16957028210163116, 0.13254205882549286], [-0.23978771269321442, -0.016710130497813225, 0.07247456163167953, -0.08298353850841522, 0.23533819615840912], [0.06967812776565552, -0.17792367935180664, -0.09855390340089798, -0.06617102026939392, 0.29093214869499207], [-0.02221427671611309, -0.17606717348098755, -0.4806632399559021, -0.351298451423645, 0.07633673399686813]]], [[[0.12619411945343018, 0.04991642385721207, 0.1504390686750412, -0.08176591247320175, -0.23138365149497986], [-0.0005144909955561161, 0.16930465400218964, 0.16249504685401917, 0.06566669046878815, -0.0026294549461454153], [0.1740618795156479, -0.09089589864015579, 0.09974279254674911, 0.13585259020328522, -0.1715722531080246], [-0.031652193516492844, 0.2472391128540039, 0.10775221139192581, -0.22404129803180695, -0.19361664354801178], [0.08375325798988342, 0.07673455029726028, -0.16493885219097137, -0.4892300069332123, 0.0023088459856808186]]], [[[-0.12833406031131744, 0.07718398422002792, -0.15063519775867462, -0.2118445485830307, -0.20652824640274048], [0.09391046315431595, -0.08625088632106781, 0.2521173059940338, 0.2256726771593094, 0.3175206482410431], [0.2330358922481537, 0.17715121805667877, 0.4359089136123657, 0.3475712239742279, -0.03229319304227829], [-0.09127483516931534, 0.003962282091379166, -0.21382907032966614, 0.10590621829032898, -0.12863484025001526], [-0.2914882302284241, -0.3608044385910034, -0.5714864134788513, -0.25832656025886536, -0.23014762997627258]]], [[[-0.09267129004001617, -0.0804436132311821, -0.11710488796234131, 0.03773751109838486, -0.2623039186000824], [-0.13121351599693298, 0.21853618323802948, 0.21875475347042084, 0.18247409164905548, 0.22701959311962128], [0.01889420486986637, 0.17170590162277222, -0.28422725200653076, -0.07949818670749664, 0.2499854564666748], [-0.07543537765741348, 0.037181198596954346, -0.2626834809780121, -0.2260238379240036, 0.24636387825012207], [0.06403753906488419, 0.12090083956718445, 0.026011912152171135, 0.04475678876042366, 0.16479763388633728]]], [[[0.2543581426143646, 0.2027217298746109, 0.02246897853910923, 0.1625475436449051, 0.06677693873643875], [-0.140067458152771, 0.023464282974600792, 0.08454996347427368, -0.01841435581445694, 0.06473542749881744], [0.019308939576148987, 0.014865100383758545, 0.17120948433876038, 0.0124126598238945, -0.09804551303386688], [-0.055729545652866364, -0.32211732864379883, 0.15711097419261932, 0.08486903458833694, -0.15966948866844177], [-0.6018596887588501, -0.17355245351791382, -0.08749578148126602, -0.009242215193808079, -0.3173794448375702]]], [[[0.14028580486774445, -0.34178993105888367, -0.30463507771492004, -0.3848026394844055, 0.15397384762763977], [0.019099222496151924, 0.028994422405958176, -0.048128750175237656, -0.22715875506401062, -0.06892889738082886], [-0.16396775841712952, -0.17415128648281097, -0.2507100999355316, 0.0407697856426239, 0.09986356645822525], [-0.43109723925590515, -0.06506749242544174, -0.07281625270843506, 0.11882420629262924, 0.1709449142217636], [0.020259706303477287, 0.20332293212413788, -0.23883384466171265, 0.025431504473090172, 0.24381272494792938]]], [[[-0.11428147554397583, 0.08035242557525635, -0.4892832338809967, -0.2071421593427658, 0.1616675853729248], [0.15164992213249207, 0.06665109097957611, -0.02732372283935547, -0.11045677214860916, -0.2030361145734787], [-0.05941380187869072, 0.24764177203178406, 0.2056962549686432, 0.32252633571624756, 0.18038229644298553], [-0.06826294213533401, -0.0018772798357531428, -0.22364714741706848, -0.044688500463962555, -0.062187887728214264], [-0.1343153715133667, -0.2099483609199524, -0.03959701955318451, -0.18207570910453796, -0.26761412620544434]]], [[[0.05881165340542793, 0.0814136192202568, 0.14823654294013977, -0.11968770623207092, -0.24248148500919342], [-0.21749816834926605, -0.29258838295936584, 0.12122219055891037, 0.002583846915513277, -0.2275114208459854], [0.0406765416264534, 0.16764546930789948, -0.07308045029640198, 0.1836925894021988, 0.0242476686835289], [0.17960157990455627, 0.16455413401126862, -0.17600446939468384, -0.27818775177001953, 0.1901482790708542], [-0.04683303460478783, -0.1078266054391861, 0.0564880296587944, -0.14044395089149475, 0.19977526366710663]]], [[[-0.31719791889190674, 0.2088143527507782, 0.08380892127752304, -0.039242129772901535, 0.04683279991149902], [0.13554279506206512, 0.11419089883565903, -0.16810482740402222, 0.04931260272860527, 0.16211387515068054], [0.058295540511608124, 0.05536060035228729, 0.060536064207553864, -0.08067785948514938, 0.12660545110702515], [-0.022138400003314018, 0.06539057940244675, 0.05744164437055588, -0.12190335243940353, 0.17099003493785858], [-0.015315447933971882, -0.24534448981285095, 0.16680042445659637, 0.212271586060524, -0.24610644578933716]]], [[[0.21737729012966156, -0.05009913817048073, 0.14634399116039276, 0.30951693654060364, 0.17582958936691284], [-0.0071531254798173904, -0.025783102959394455, -0.26926976442337036, -0.09855934977531433, 0.4288369417190552], [-0.09174006432294846, -0.3604263961315155, -0.31931278109550476, -0.28813034296035767, -0.026416044682264328], [-0.14150868356227875, -0.1968855857849121, -0.25895068049430847, 0.04732194542884827, 0.11607305705547333], [0.1217912957072258, 0.08614163100719452, 0.1298980414867401, 0.17112451791763306, 0.16656462848186493]]], [[[-0.36094242334365845, -0.15074090659618378, 0.2789476215839386, 0.23548491299152374, 0.022765275090932846], [-0.08315005898475647, 0.2802616059780121, 0.33006739616394043, -0.29394087195396423, -0.3695807456970215], [-0.21346724033355713, 0.1184925064444542, -0.09930117428302765, -0.3019678294658661, -0.08505618572235107], [0.07601242512464523, 0.24072888493537903, -0.13955357670783997, -0.10599987208843231, -0.08752352744340897], [0.25968360900878906, 0.03232236206531525, -0.39093393087387085, -0.19442987442016602, 0.21439358592033386]]], [[[0.015220427885651588, 0.08330313116312027, -0.1488766223192215, -0.26495519280433655, -0.3835501968860626], [-0.0003105863288510591, 0.09585054963827133, -0.05057625100016594, 0.06250719726085663, -0.42501479387283325], [0.02870091050863266, -0.10278312116861343, 0.1413906067609787, 0.16331684589385986, 0.028995854780077934], [0.010355939157307148, 0.013935294933617115, 0.07679768651723862, 0.05836499109864235, 0.13197597861289978], [0.1899876892566681, -0.03696149215102196, -0.00744234211742878, 0.14947569370269775, 0.1758873164653778]]], [[[-0.28564584255218506, -0.24506287276744843, 0.36177313327789307, -0.0012556100264191628, 0.029339605942368507], [-0.03931363672018051, 0.3334967792034149, -0.07300885021686554, -0.37460729479789734, -0.15423448383808136], [0.33497005701065063, 0.21578140556812286, -0.15940749645233154, -0.050548382103443146, -0.33252403140068054], [0.11107157915830612, -0.4277380704879761, 0.16854606568813324, 0.23771734535694122, 0.08141699433326721], [-0.26960840821266174, -0.3461062014102936, -0.17099344730377197, 0.32901862263679504, 0.00043828299385495484]]], [[[0.25496459007263184, -0.058887019753456116, -0.2913125455379486, -0.12484949082136154, 0.0805337131023407], [0.19987915456295013, -0.037566568702459335, -0.3342536687850952, -0.2827993929386139, -0.028123823925852776], [0.2833158075809479, -0.15320424735546112, -0.36264726519584656, -0.07749009877443314, -0.16120241582393646], [0.29325613379478455, -0.20586133003234863, -0.21175934374332428, 0.017616167664527893, 0.04071967303752899], [0.2840321958065033, -0.0859702080488205, -0.16942797601222992, -0.12819427251815796, 0.01344368327409029]]], [[[-0.08212883770465851, -0.014625241048634052, -0.08260662853717804, 0.2061554193496704, -0.4198395609855652], [-0.2814655005931854, -0.4536280930042267, 0.10228714346885681, 0.36013948917388916, 0.046287067234516144], [-0.1431344449520111, -0.4788288474082947, -0.14940081536769867, 0.12184435874223709, 0.17951816320419312], [0.36995548009872437, -0.14736036956310272, -0.45462968945503235, -0.05684487149119377, 0.044052187353372574], [0.3619672656059265, 0.027099665254354477, -0.21198298037052155, -0.042706042528152466, 0.2668238878250122]]], [[[0.23781010508537292, 0.2014435976743698, -0.051392488181591034, -0.1561787724494934, 0.15778961777687073], [0.1143285483121872, -0.0798306092619896, -0.2682558298110962, -0.5709726214408875, -0.23874008655548096], [-0.5213222503662109, -1.3971037864685059, -1.4343281984329224, -1.1178545951843262, -0.6912552714347839], [-0.3096711337566376, -0.15386220812797546, -0.19714203476905823, -0.22305530309677124, -0.2614921033382416], [0.28094419836997986, 0.2415710836648941, 0.19821685552597046, 0.2665811777114868, -0.010752584785223007]]], [[[0.21210624277591705, -0.31732994318008423, -0.4459395110607147, 0.004551285412162542, 0.02403339184820652], [-0.26132455468177795, -0.48535922169685364, 0.054451003670692444, 0.21869921684265137, 0.04636482894420624], [-0.4739612638950348, -0.11771272122859955, 0.3182544410228729, 0.19570903480052948, -0.09302600473165512], [-0.10643503814935684, 0.3544680178165436, 0.2266351729631424, 0.03820684924721718, 0.02081756666302681], [0.2484823316335678, 0.2540951073169708, -0.08772286027669907, -0.21509769558906555, -0.16166594624519348]]]], "accuracies": 0.9538}, "2": {"scales_p1": [0.802448034286499, 0.7284687161445618, 0.8529504537582397, 0.9541852474212646, 0.9256954193115234, 0.7913317084312439, 0.9124184846878052, 0.717309296131134, 0.6740744709968567, 0.5527852773666382, 0.6137964725494385, 0.7076448202133179, 0.8870901465415955, 0.8416616320610046, 0.6660232543945312, 0.8266483545303345, 0.5820859670639038, 0.7935268878936768, 0.7906600832939148, 0.8347650766372681], "scales_p2": [0.8397148847579956, 0.7514358162879944, 0.9641444087028503, 0.7215517163276672, 0.846228837966919, 0.7901588678359985, 0.8039865493774414, 0.9551588296890259, 0.8391844630241394, 0.7210291624069214, 0.7424934506416321, 0.7676822543144226, 0.8516714572906494, 0.8329945206642151, 1.0796880722045898, 0.6574155688285828, 0.9854219555854797, 1.0, 0.9131088256835938, 0.9036806225776672, 0.8040165305137634, 0.8832323551177979, 0.7107400894165039, 0.7228849530220032, 0.7038262486457825, 0.7710598111152649, 0.9156574606895447, 0.7055529952049255, 0.7767110466957092, 0.9026041030883789, 0.8272330164909363, 0.7413605451583862, 0.8724917769432068, 0.9256085753440857, 1.0057717561721802, 0.923656702041626, 0.9200255870819092, 0.8086280226707458, 0.6203184723854065, 1.0, 0.8348883986473083, 0.7068442106246948, 0.8332356214523315, 0.5457080006599426, 0.9871032238006592, 0.9268860816955566, 0.9565837383270264, 0.9267463088035583, 0.8279255628585815, 0.8513242602348328], "conv_weights": [[[[-0.07374982535839081, -0.1245446428656578, 0.031971562653779984, 0.03282950073480606, -0.02866627462208271, 0.016581427305936813, -0.03770110011100769, -0.033625971525907516, 0.0066142613068223, -0.09555044025182724, -0.17824755609035492], [-0.018453389406204224, -0.0552062913775444, -0.04127538576722145, -0.06123252213001251, -0.06372792273759842, -0.07001003623008728, 0.05107097700238228, 0.053383469581604004, -0.045880481600761414, -0.1456078290939331, -0.11333013325929642], [0.05961817875504494, -0.04564639925956726, -0.02533745765686035, 0.0207781083881855, 0.014272527769207954, -0.0219569094479084, 0.07546111941337585, -0.021118048578500748, 0.020903486758470535, -0.12527544796466827, -0.13408568501472473], [-0.03965255618095398, 0.010998450219631195, 0.03865451365709305, -0.04096192121505737, -0.05030917748808861, 0.0764010101556778, 0.09864478558301926, -0.015116930939257145, -0.09100720286369324, -0.0020934834610670805, -0.13125815987586975], [0.07563498616218567, -0.05922955274581909, -0.06542178988456726, -0.0707705095410347, 0.017583006992936134, 0.03243556618690491, -0.02216358296573162, 0.08288512378931046, -0.013001993298530579, 0.05953170731663704, -0.050232548266649246], [-0.07523464411497116, -0.09600982069969177, -0.085362508893013, -0.12120288610458374, 0.029915668070316315, 0.0726395845413208, 0.042169079184532166, -0.05366012826561928, -0.08217319846153259, 0.036244314163923264, 0.0708153247833252], [-0.08437197655439377, 0.018910549581050873, -0.01472689863294363, 0.051562123000621796, 0.05601821467280388, -0.08627846091985703, -0.05352199077606201, -0.05153825506567955, -0.0469239205121994, 0.07684866338968277, -0.0692838653922081], [0.0181648600846529, -0.012654034420847893, -0.0702681839466095, -0.06823988258838654, -0.07445493340492249, 0.026688827201724052, -0.04191259294748306, 0.05714018642902374, -0.05075240135192871, 0.08128196746110916, -0.06422960758209229], [0.014333361759781837, -0.022010494023561478, 0.0681276023387909, -0.11271587759256363, 0.04356396198272705, 0.04765147715806961, 0.03907852992415428, 0.038362957537174225, 0.0530688501894474, 0.0776151791214943, 0.025333493947982788], [0.04067254811525345, 0.02120286226272583, -0.09952671080827713, -0.047796715050935745, -0.06473308801651001, -0.00869548786431551, -0.009159238077700138, -0.06781065464019775, -0.08064942806959152, 0.047155097126960754, 0.02789059840142727], [0.011986139230430126, -0.02904713898897171, -0.04504973441362381, -0.004630240146070719, -0.11306355148553848, 0.0277403611689806, -0.011501223780214787, -0.08790873736143112, -0.0021805388387292624, 0.02466600574553013, -0.0008548531914129853]]], [[[0.09311702102422714, 0.010092123411595821, -0.06934534758329391, -0.022776028141379356, -0.011085246689617634, -0.008435150608420372, -0.06020423024892807, -0.08796227723360062, 0.07773211598396301, 0.09878820925951004, -0.026731740683317184], [-0.052210986614227295, 0.040661729872226715, -0.0665937289595604, 0.026047511026263237, -0.04666836932301521, -0.039701201021671295, -0.13222861289978027, -0.15304017066955566, -0.04235674440860748, -0.0027195641305297613, 0.07201018929481506], [0.017416227608919144, 0.03380488604307175, -0.006567427422851324, 0.00950711965560913, -0.09224554151296616, -0.06400519609451294, -0.14273451268672943, -0.10955572128295898, 0.015497392043471336, -0.09816192835569382, -0.10763934254646301], [-0.019509708508849144, -0.16130830347537994, -0.13434000313282013, -0.1558666229248047, -0.01848679594695568, -0.05283481627702713, -0.0021662551444023848, -0.08644164353609085, 0.018630297854542732, -0.048032231628894806, 0.034799981862306595], [0.0029914306942373514, -0.08475606143474579, -0.1537300944328308, -0.127175971865654, -0.059730976819992065, 0.012316669337451458, 0.008000039495527744, 0.04198164492845535, -0.12920686602592468, -0.08697708696126938, -0.0622536726295948], [-0.12527503073215485, -0.003906360361725092, -0.06927210837602615, -0.009500364772975445, 0.0521581657230854, -0.10890065878629684, -0.04943959414958954, -0.024698950350284576, -0.15973958373069763, -0.07626790553331375, -0.15936081111431122], [-0.16438822448253632, -0.162742018699646, -0.0010641462868079543, 0.02342050150036812, -0.07036840915679932, -0.09843999147415161, -0.07307921350002289, 0.041367825120687485, -0.06769273430109024, -0.10109863430261612, -0.09849806874990463], [-0.08787041902542114, -0.09979909658432007, -0.12231703102588654, -0.10734669864177704, -0.13737893104553223, -0.09150245040655136, -0.0012074055848643184, -0.05533924326300621, -0.07311751693487167, -0.19574543833732605, -0.15851497650146484], [-0.06507774442434311, -0.19354379177093506, -0.14560595154762268, -0.07300979644060135, -0.11391269415616989, -0.12249407917261124, -0.021326636895537376, 0.006481125485152006, -0.06926338374614716, -0.005695547442883253, -0.14361609518527985], [-0.21489587426185608, -0.28732550144195557, -0.25692880153656006, -0.18776555359363556, -0.014962596818804741, -0.11057548969984055, -0.07742947340011597, -0.026700623333454132, -0.1277438849210739, -0.17365913093090057, -0.20414942502975464], [-0.3494497835636139, -0.1393272578716278, -0.22936920821666718, -0.11876857280731201, 0.030832570046186447, -0.08066201955080032, -0.08499652147293091, 0.04860534891486168, -0.0187936183065176, -0.020982123911380768, -0.12369922548532486]]], [[[0.01903749629855156, 0.026508353650569916, -0.1276324987411499, -0.1291816085577011, -0.09106628596782684, -0.09311307221651077, -0.09293685853481293, -0.04281109571456909, 0.11575864255428314, 0.18621768057346344, 0.03244572877883911], [0.05492329224944115, -0.028330499306321144, -0.005433551035821438, -0.0602119043469429, -0.16331703960895538, -0.18394337594509125, 0.021861370652914047, -0.002725091530010104, 0.0853809043765068, 0.09428443759679794, 0.13064740598201752], [0.06246955320239067, 0.061908043920993805, -0.037097156047821045, 0.07051437348127365, -0.11183739453554153, -0.033070746809244156, -0.02249935083091259, -0.05559523403644562, 0.013303366489708424, -0.0677523985505104, -0.035592034459114075], [0.06885980814695358, 0.12454391270875931, 0.06558193266391754, 0.13151003420352936, 0.11493456363677979, -0.03295493125915527, 0.0055802371352910995, 0.02983757108449936, 0.06781317293643951, -0.05577242374420166, 0.0670989602804184], [0.07075235247612, -0.005119426641613245, 0.09864845871925354, 0.20544154942035675, 0.1301708072423935, 0.12300430983304977, -0.004146971274167299, 0.07923321425914764, 0.07520947605371475, 0.04606103152036667, 0.03042447753250599], [0.05307362601161003, -0.04340628534555435, 0.1043575182557106, 0.13176001608371735, 0.040141548961400986, 0.14655789732933044, 0.13673469424247742, 0.10741980373859406, 0.12476687878370285, 0.02197670191526413, -0.06361773610115051], [-0.10149572044610977, -0.10817749798297882, 0.011129236780107021, 0.07444825768470764, 0.023167742416262627, -0.043970491737127304, 0.030645621940493584, 0.11014126986265182, 0.04141973331570625, -0.06417584419250488, -0.11742204427719116], [-0.05736012011766434, -0.11956164240837097, -0.07897643744945526, -0.10367527604103088, -0.045781880617141724, -0.013509262353181839, 0.059538815170526505, -0.10392541438341141, -0.06256214529275894, -0.02456142008304596, -0.0723627507686615], [-0.040390267968177795, -0.15691137313842773, -0.2815350890159607, -0.2930642068386078, -0.1653026044368744, -0.22076918184757233, -0.03020784631371498, -0.08386678993701935, -0.07951028645038605, -0.14101764559745789, -0.11112941056489944], [-0.13691307604312897, -0.14278638362884521, -0.2989182770252228, -0.3281080722808838, -0.1644790917634964, -0.07996020466089249, -0.12621352076530457, 0.02701362781226635, -0.07274962216615677, 0.018636487424373627, -0.12415239959955215], [0.12398703396320343, 0.1271676868200302, 0.032896988093853, 0.07108066976070404, -0.042741142213344574, 0.008882515132427216, 0.09899844229221344, 0.07310357689857483, 0.028227549046278, 0.03963036090135574, -0.0002471605548635125]]], [[[-0.11048099398612976, 0.03645619377493858, -0.004591960459947586, 0.12398867309093475, 0.06856059283018112, 0.11140763759613037, -0.01002768985927105, 0.03341366723179817, -0.09395397454500198, 0.0007064191158860922, 0.05798529461026192], [-0.050457894802093506, 0.10018206387758255, 0.12897749245166779, 0.013576381839811802, 0.032624080777168274, 0.04776187613606453, -0.010299540124833584, -0.0488252192735672, 0.09140259772539139, -0.034901030361652374, 0.029317600652575493], [-0.04702005907893181, -0.03549029305577278, 0.016233259811997414, 0.05022105574607849, 0.0896003320813179, -0.0496409609913826, -0.015970325097441673, 0.05058141052722931, 0.0704423189163208, -0.005077098496258259, 0.034524377435445786], [-0.008577167987823486, -0.07034912705421448, -0.04707414656877518, -0.1357896625995636, -0.16887958347797394, -0.04117085039615631, -0.021386491134762764, 0.04110019654035568, 0.04157186672091484, 0.1283295899629593, 0.028396300971508026], [-0.04479708522558212, -0.13844506442546844, -0.2966897785663605, -0.4276238977909088, -0.31595033407211304, -0.2459835559129715, -0.1904621720314026, -0.13478289544582367, -0.19931165874004364, -0.07755017280578613, 0.0337839275598526], [0.007460363209247589, -0.1520129144191742, -0.1115158274769783, -0.21562029421329498, -0.37129542231559753, -0.4323948323726654, -0.44735684990882874, -0.340767502784729, -0.28489357233047485, -0.23005066812038422, -0.08609992265701294], [-0.022103453055024147, -0.059198349714279175, -0.0431194044649601, -0.09623986482620239, -0.11639737337827682, -0.30588164925575256, -0.28690019249916077, -0.2827884256839752, -0.2100519835948944, -0.11959519982337952, -0.03347822278738022], [-0.010521787218749523, -0.00068988575367257, 0.07454753667116165, 0.11565034836530685, -0.018406247720122337, -0.16064123809337616, -0.15069864690303802, -0.13475637137889862, -0.17587776482105255, -0.04427913576364517, 0.0336962528526783], [-0.009397802874445915, 0.10306205600500107, 0.06980210542678833, 0.1441027969121933, 0.12932106852531433, 0.031195521354675293, -0.06454640626907349, -0.131256565451622, -0.05456739664077759, 0.009623092599213123, -0.05100800469517708], [0.07884134352207184, 0.0769592747092247, 0.04544253647327423, 0.053918659687042236, 0.1263972371816635, -0.022732334211468697, 0.007475118152797222, 0.023611661046743393, -0.04516683518886566, 0.013467777520418167, 0.0834796205163002], [0.12322291731834412, 0.12389236688613892, 0.10937526822090149, 0.13410481810569763, 0.09601902216672897, 0.028123077005147934, 0.05810636654496193, 0.10008759051561356, 0.04927394539117813, -0.03233937546610832, 0.006899912375956774]]], [[[-0.12032831460237503, -0.24411176145076752, -0.18824957311153412, -0.19309131801128387, -0.1327485740184784, 0.014789643697440624, 0.12064875662326813, 0.009934755973517895, 0.007951261475682259, 0.10491985082626343, 0.04642430692911148], [-0.008761534467339516, -0.17997974157333374, -0.1984652280807495, -0.0767078846693039, -0.08796844631433487, 0.05224283039569855, -0.015727316960692406, 0.02650493197143078, 0.06803231686353683, -0.008570902980864048, 0.07234528660774231], [-0.048573579639196396, -0.044326670467853546, -0.15395760536193848, -0.0626637414097786, -0.10775432735681534, 0.0744001641869545, 0.09376578778028488, 0.0378885380923748, 0.030187176540493965, -0.011857685633003712, 0.06665896624326706], [-0.052944716066122055, 0.02944675274193287, -0.1195925921201706, -0.10419674217700958, -0.017315354198217392, 0.08368910104036331, -0.011699480004608631, 0.15134146809577942, 0.10994819551706314, 0.016143817454576492, 0.050735101103782654], [-0.03481706976890564, 0.012744434177875519, -0.23977036774158478, -0.16499894857406616, -0.20228129625320435, -0.08125252276659012, -0.033457666635513306, 0.08582382649183273, 0.11195439845323563, 0.04086298123002052, 0.02043251320719719], [-0.08056649565696716, -0.19023951888084412, -0.24844688177108765, -0.16399160027503967, -0.11683576554059982, -0.026714935898780823, -0.02559780888259411, 0.09101996570825577, 0.012981225736439228, 0.04663730412721634, -0.018186846747994423], [-0.13524170219898224, -0.13857115805149078, -0.18009772896766663, -0.28731998801231384, -0.17444175481796265, -0.23195470869541168, -0.05557872727513313, -0.13751021027565002, -0.0794968530535698, -0.09741125255823135, -0.060113221406936646], [-0.1395815759897232, -0.06770595908164978, -0.08127710968255997, -0.2138541340827942, -0.3491195738315582, -0.28770583868026733, -0.3054227828979492, -0.10611085593700409, -0.05359836667776108, 0.04250289127230644, 0.011384256184101105], [-0.07214592397212982, -0.11638461798429489, -0.17379598319530487, -0.17570126056671143, -0.2110651731491089, -0.2853454053401947, -0.24472209811210632, -0.17350082099437714, -0.14896032214164734, -0.12019697576761246, -0.06254865974187851], [-0.1576196849346161, -0.1705312281847, -0.2372816503047943, -0.25379472970962524, -0.18120767176151276, -0.1680440455675125, -0.150052011013031, -0.07194927334785461, 0.006543250754475594, -0.07574498653411865, -0.133664071559906], [-0.14884553849697113, -0.19700083136558533, -0.24110575020313263, -0.2010878622531891, -0.24823226034641266, -0.0762360692024231, -0.08258859813213348, -0.0581984780728817, -0.050188805907964706, 0.019316330552101135, -0.018612684682011604]]], [[[0.07366173714399338, -0.045008376240730286, -0.09405465424060822, -0.06606745719909668, -0.023369520902633667, -0.07790469378232956, -0.06692057102918625, -0.2082066684961319, -0.15438511967658997, -0.14094513654708862, -0.09486280381679535], [0.07953409850597382, 0.04976202920079231, 0.0005680292379111052, -0.03109838254749775, 0.046943698078393936, -0.017120180651545525, -0.14800426363945007, -0.1813122183084488, -0.27064424753189087, -0.14140662550926208, 0.010220530442893505], [0.07758479565382004, 0.05699223279953003, 0.07819502800703049, 0.023245789110660553, 0.12667010724544525, 0.0597480833530426, -0.027935227379202843, -0.16058677434921265, -0.11117390543222427, -0.01063037570565939, 0.00039410701720044017], [0.012858076952397823, -0.025364860892295837, 0.06223612278699875, 0.01709672249853611, -0.008383678272366524, -0.031673312187194824, -0.1299714744091034, -0.16989657282829285, -0.13721439242362976, -0.12036493420600891, 0.12398017942905426], [0.03554830327630043, 0.12753917276859283, 0.027207810431718826, 0.010686570778489113, 0.10611940175294876, -0.00780118303373456, -0.06473425775766373, -0.226555734872818, -0.16599228978157043, -0.0799579843878746, 0.019748441874980927], [0.1275644451379776, 0.0076162926852703094, 0.13402827084064484, -0.026864605024456978, 0.04294167831540108, 0.002579477382823825, -0.09827516227960587, -0.2013324648141861, -0.12835898995399475, 0.088251493871212, 0.05550556629896164], [0.01184901874512434, 0.12104081362485886, 0.06090383604168892, 0.009329666383564472, -0.07226936519145966, -0.15793055295944214, -0.2325504720211029, -0.2588471472263336, 0.003979844972491264, 0.014344975352287292, 0.04072694480419159], [0.14592938125133514, 0.01965267024934292, -0.0016742403386160731, -0.0996827632188797, -0.1135331466794014, -0.2252291887998581, -0.3093893527984619, -0.06412756443023682, 0.07211846858263016, 0.10634925216436386, 0.033927466720342636], [0.0014897132059559226, 0.11881976574659348, 0.05689653381705284, -0.09742765873670578, -0.11235258728265762, -0.24590660631656647, -0.21293756365776062, 0.011226223781704903, -0.0530741922557354, 0.04830249026417732, 0.031053749844431877], [0.13141943514347076, -0.03649346902966499, -0.05819441005587578, -0.0961361676454544, -0.07226487994194031, -0.10944975912570953, -0.055515218526124954, -0.1021234542131424, -0.050547752529382706, -0.07509037852287292, 0.049665894359350204], [-0.007440483663231134, 0.04835975542664528, 0.05790908262133598, -0.048456497490406036, -0.05749566853046417, -0.01582082360982895, 0.05015774816274643, 0.01828155666589737, 0.06834649294614792, -0.02953503653407097, -0.06102727726101875]]], [[[0.1245548352599144, 0.058547161519527435, 0.10726972669363022, 0.08184606581926346, -0.0016853081760928035, -0.10898268222808838, -0.15126855671405792, -0.11192569881677628, -0.18379661440849304, -0.11974228918552399, -0.06548155844211578], [0.0035847784020006657, -0.027363667264580727, 0.10305333137512207, -0.021682219579815865, -0.05097808688879013, -0.09549535810947418, 0.006911951117217541, -0.14295238256454468, -0.21659620106220245, -0.18776939809322357, -0.08607803285121918], [0.007178253028541803, 0.07656747847795486, 0.033573854714632034, 0.07342908531427383, 0.15406981110572815, 0.01712154597043991, -0.05986497923731804, -0.05101480707526207, -0.16095449030399323, -0.03884267807006836, -0.027071040123701096], [-0.015659471973776817, 0.07604886591434479, 0.07411133497953415, 0.05079205706715584, 0.1366722136735916, 0.07760714739561081, -0.03157505393028259, -0.03173906356096268, -0.05660777911543846, -0.023729169741272926, 0.014488416723906994], [-0.1039462685585022, -0.0537598691880703, -0.07466726005077362, 0.08024522662162781, 0.19430740177631378, 0.15938390791416168, 0.0907517746090889, 0.07586333155632019, -0.04123114421963692, 0.023744849488139153, -0.007287467364221811], [-0.15292100608348846, -0.16615530848503113, -0.07578782737255096, 0.047202613204717636, 0.17703254520893097, 0.179360032081604, 0.02722647227346897, -0.061868421733379364, -0.04914306476712227, 0.04291046783328056, 0.13588233292102814], [-0.16772174835205078, -0.2271716147661209, -0.16469979286193848, -0.026655802503228188, 0.16064612567424774, 0.04886946082115173, 0.06589863449335098, -0.0013141827657818794, -0.015337744727730751, -0.02992378920316696, 0.04172101989388466], [-0.0931525006890297, -0.07869425415992737, -0.15168996155261993, -0.014929736033082008, 0.05267154425382614, 0.11211597174406052, 0.03947820886969566, -0.03525055944919586, -0.03190736845135689, 0.014495468698441982, -0.05479193478822708], [-0.06846677511930466, -0.03768596798181534, -0.07546231150627136, -0.08612485975027084, 0.11987975239753723, 0.11943201720714569, 0.07441338896751404, -0.06602196395397186, 0.04838833957910538, -0.09154568612575531, 0.06663285940885544], [-0.010683920234441757, -0.014416268095374107, -0.03329081833362579, -0.030031614005565643, 0.06063135340809822, 0.07222363352775574, 0.06626147776842117, -0.06324582546949387, -0.024596218019723892, 0.059798527508974075, -0.05066990852355957], [-0.09815680980682373, -0.1092907190322876, -0.12706753611564636, -0.0008434696937911212, -0.017417360097169876, -0.09479529410600662, 0.02010226994752884, 0.061824917793273926, -0.04049088433384895, 0.046888574957847595, 0.013172267936170101]]], [[[-0.18980622291564941, -0.2945592403411865, -0.24269607663154602, -0.12835495173931122, -0.029841940850019455, -0.0078025986440479755, 0.021304765716195107, -0.02147689275443554, -0.0542287603020668, -0.11359357833862305, -0.06331891566514969], [-0.08085767924785614, -0.17414189875125885, -0.1431063413619995, -0.024381248280405998, -0.017669595777988434, 0.05753422901034355, 0.033149588853120804, -0.07182900607585907, 0.0317581407725811, 0.09027084708213806, 0.052291665226221085], [-0.0685962364077568, -0.10515014827251434, -0.20289453864097595, -0.18761874735355377, -0.1751009076833725, -0.016070643439888954, -0.11989914625883102, 0.006872603204101324, 0.11563676595687866, 0.0005203396431170404, 0.16148270666599274], [0.009826271794736385, -0.14209817349910736, 0.03420810401439667, -0.15245361626148224, -0.12141638994216919, -0.1791420727968216, 0.01566920056939125, 0.03705919533967972, -0.02295513264834881, 0.09361600130796432, 0.05414404720067978], [0.05542462319135666, -0.08088071644306183, -0.06293158233165741, -0.12460876256227493, -0.1403975933790207, -0.09771107137203217, -0.05220897123217583, -0.20098406076431274, -0.18657879531383514, -0.1199851781129837, 0.03017224371433258], [0.033739540725946426, -0.19565686583518982, -0.1202661544084549, -0.1682976633310318, -0.07628797739744186, -0.15271729230880737, -0.18859805166721344, -0.30282968282699585, -0.3169422149658203, -0.15186217427253723, -0.025737255811691284], [-0.1609448790550232, -0.11121918261051178, -0.09622263163328171, -0.1498078852891922, -0.06990388035774231, -0.14542895555496216, -0.21553431451320648, -0.3030656576156616, -0.26201531291007996, -0.13413870334625244, -0.18039405345916748], [-0.13307732343673706, -0.08626417815685272, -0.18307307362556458, -0.07177890837192535, -0.05129063501954079, -0.029003014788031578, -0.11258073896169662, -0.11469411849975586, -0.1923976093530655, -0.15078790485858917, -0.08765549957752228], [-0.17760023474693298, -0.1306135654449463, -0.16389143466949463, -0.0839628204703331, -0.030433550477027893, 0.0371236689388752, 0.01620996743440628, 0.07095317542552948, -0.051628004759550095, -0.05821085721254349, -0.12407807260751724], [-0.06546759605407715, -0.004699341021478176, 0.007499835919588804, 0.06726153194904327, 0.08309299498796463, 0.10167676210403442, 0.1270686239004135, 0.057204317301511765, 0.039134275168180466, 0.08136872947216034, -0.04877285659313202], [-0.06211453303694725, -0.060698892921209335, 0.13574934005737305, 0.0256961677223444, 0.18002961575984955, 0.041315026581287384, 0.23256950080394745, 0.21814122796058655, 0.147134467959404, 0.20633302628993988, 0.055125605314970016]]], [[[-0.08368311077356339, -0.1208915188908577, -0.03849736973643303, -0.15298689901828766, 0.0022683306597173214, 0.10496629029512405, 0.06406981498003006, -0.0023275224957615137, 0.053358495235443115, 0.08018926531076431, 0.08706022799015045], [0.01077948696911335, -0.19880931079387665, -0.09273767471313477, -0.03439716994762421, 0.08962473273277283, 0.13226909935474396, 0.07642006874084473, -0.025716684758663177, 0.0063115619122982025, 0.061080873012542725, -0.13003721833229065], [-0.14479458332061768, -0.15812596678733826, -0.013116148300468922, -0.01750843971967697, -0.046196307986974716, 0.08191589266061783, 0.11336354166269302, 0.11164688318967819, -0.0735945850610733, -0.09819173812866211, -0.18781395256519318], [-0.17135164141654968, -0.23259171843528748, -0.11741242557764053, -0.03584572300314903, 0.10072886943817139, -0.03966270759701729, 0.005513710435479879, -0.03968201205134392, -0.05685276538133621, -0.08086944371461868, -0.02356378547847271], [-0.23448240756988525, -0.09194821119308472, 0.011735424399375916, -0.08821244537830353, -0.01983310841023922, -0.001111926743760705, 0.01904922164976597, 0.015557750128209591, -0.14282289147377014, -0.21875536441802979, -0.03335127234458923], [-0.10884184390306473, -0.1310102492570877, -0.09527920931577682, -0.090572290122509, -0.00959657970815897, 0.06904484331607819, 0.0877610594034195, 0.06581121683120728, -0.11280743032693863, -0.20763236284255981, -0.017219267785549164], [-0.10489575564861298, -0.13857091963291168, -0.11551948636770248, -0.07434948533773422, -0.009462579153478146, 0.11786472052335739, 0.08327725529670715, 0.052062422037124634, -0.10430438071489334, -0.2197279930114746, -0.0003101168549619615], [0.06268442422151566, 0.03866920992732048, 0.04582405835390091, -0.0015190531266853213, -0.02864087000489235, 0.10797639191150665, 0.041560206562280655, -0.032165661454200745, -0.10942306369543076, -0.0915951207280159, 0.08157429844141006], [0.028212785720825195, 0.04924752190709114, 0.053646910935640335, 0.07728316634893417, 0.04561953619122505, 0.0530034601688385, -0.12569856643676758, -0.18651564419269562, -0.2518678307533264, -0.057089876383543015, 0.1270739734172821], [0.14312073588371277, 0.03500793129205704, -0.014693393371999264, 0.07368139922618866, 0.052275072783231735, -0.002686470514163375, -0.15797899663448334, -0.10095392167568207, -0.19076380133628845, -0.14316150546073914, 0.11099343746900558], [0.02082321234047413, 0.0006009784410707653, 0.09470213949680328, -0.03248808905482292, -0.030876124277710915, 0.042141903191804886, -0.15416449308395386, -0.16678892076015472, -0.25461140275001526, 0.024020031094551086, 0.0661824643611908]]], [[[-0.0668007880449295, -0.014472716487944126, -0.23876506090164185, -0.24966855347156525, -0.33068108558654785, -0.3136424720287323, -0.2502025067806244, -0.25205543637275696, -0.13939550518989563, -0.13812044262886047, -0.16670086979866028], [-0.15124653279781342, 0.05213499069213867, 0.0029795528389513493, 0.0008817864581942558, 0.11684577912092209, 0.07305017113685608, -0.04569578543305397, -0.1994299441576004, -0.2488446682691574, -0.1072118878364563, -0.18723566830158234], [-0.1299099326133728, 0.04668081924319267, 0.03653150424361229, 0.12632714211940765, 0.13258075714111328, -0.037860773503780365, -0.06539661437273026, -0.2758851945400238, -0.2541355788707733, -0.02140192687511444, -0.032404687255620956], [-0.0975368469953537, -0.07053834944963455, 0.16083060204982758, 0.15747179090976715, 0.10758736729621887, -0.06580567359924316, -0.05530355125665665, -0.231770321726799, -0.17577828466892242, -0.0797695443034172, -0.0727008506655693], [-0.16469021141529083, -0.005430989898741245, 0.06384431570768356, 0.06982532143592834, 0.10971426963806152, -0.11634349822998047, -0.15630200505256653, -0.21848848462104797, -0.12447996437549591, 0.02404729649424553, 0.09585527330636978], [-0.17583966255187988, -0.1798718422651291, 0.004537535365670919, -0.051339879631996155, -0.07926052808761597, -0.20196419954299927, -0.09347231686115265, -0.1172984391450882, -0.17653387784957886, -0.04507855325937271, 0.09746012091636658], [-0.19312088191509247, -0.14007948338985443, -0.028604822233319283, -0.11215922981500626, -0.1990993767976761, -0.2222389429807663, -0.18957437574863434, -0.1671813726425171, -0.02214221842586994, 0.0492963083088398, 0.1246853694319725], [-0.05335681140422821, -0.06322828680276871, -0.21577511727809906, -0.17890456318855286, -0.17190822958946228, -0.2419234961271286, -0.3111044466495514, -0.08454126119613647, -0.08830913156270981, 0.010909239761531353, 0.07461202889680862], [0.037079066038131714, 0.027827590703964233, -0.1425604373216629, -0.24872633814811707, -0.12422340363264084, -0.21525214612483978, -0.22302234172821045, -0.049026139080524445, -0.04787564277648926, 0.03447127342224121, 0.11282503604888916], [-0.002841045381501317, -0.0019245734438300133, -0.08640390634536743, -0.08788441121578217, -0.12875868380069733, -0.21349433064460754, -0.19921743869781494, -0.043635547161102295, -0.0854116827249527, 0.032543033361434937, -0.027358561754226685], [-0.01954592764377594, 0.020098362118005753, -0.12249667197465897, -0.13102814555168152, -0.1349206566810608, -0.07170296460390091, -0.012710902839899063, -0.11133070290088654, -0.045968156307935715, 0.03234120458364487, 0.12577848136425018]]], [[[-0.010937703773379326, 0.10366389155387878, 0.03759314864873886, 0.132225900888443, 0.11782334744930267, 0.12631432712078094, 0.11720731854438782, 0.1049695834517479, 0.06232939288020134, -0.05006381869316101, -0.0724702849984169], [0.019894003868103027, -0.004586969036608934, 0.01366489753127098, -0.06093662232160568, -0.06690849363803864, 0.024113845080137253, 0.0971778854727745, 0.10639358311891556, 0.012613432481884956, 0.0005400892696343362, 0.03273262456059456], [-0.025240058079361916, -0.023106103762984276, -0.11217597872018814, -0.03988102450966835, -0.13479650020599365, 0.01601226069033146, 0.010273977182805538, -0.07074551284313202, 0.05848631635308266, 0.09668581187725067, -0.05704070255160332], [-0.011703706346452236, -0.10663136839866638, -0.13736669719219208, -0.1630922257900238, -0.15763786435127258, -0.12024696171283722, 0.00046353894867934287, 0.024348769336938858, -0.03414197266101837, -0.08059391379356384, 0.01608879305422306], [-0.051468104124069214, -0.0407545380294323, -0.19531166553497314, -0.23382052779197693, -0.17475490272045135, -0.22907787561416626, -0.10894136875867844, -0.10649470239877701, -0.10459627956151962, -0.07078663259744644, 0.018686285242438316], [0.10526451468467712, -0.10279511660337448, -0.06152976676821709, -0.22706681489944458, -0.13788236677646637, -0.2086542844772339, -0.18443110585212708, -0.2539249062538147, -0.225202277302742, -0.13020114600658417, -0.07310360670089722], [-0.01362956129014492, -0.04856223985552788, -0.002316518686711788, -0.1684676706790924, -0.2562139630317688, -0.28749749064445496, -0.27881550788879395, -0.3528546988964081, -0.31958895921707153, -0.09298956394195557, -0.08260324597358704], [0.06922096014022827, 0.06838168203830719, -0.0019176547648385167, -0.15520556271076202, -0.08080539107322693, -0.2308015674352646, -0.35032016038894653, -0.428449422121048, -0.43875449895858765, -0.29798951745033264, -0.1817605048418045], [-0.027787497267127037, -0.06527242064476013, -0.044989213347435, -0.0278999675065279, 0.04800622910261154, -0.04462387412786484, -0.28144124150276184, -0.33104804158210754, -0.26749125123023987, -0.14576022326946259, -0.13758578896522522], [0.02867933362722397, -0.07494883984327316, 0.06827894598245621, -0.07800383120775223, 0.06300430744886398, -0.015130095183849335, -0.044479504227638245, -0.005455786362290382, -0.086135633289814, -0.10150651633739471, -0.041629474610090256], [-0.0394846610724926, -0.0010916785104200244, 0.035581305623054504, -0.0031213583424687386, -0.06242172420024872, 0.014990503899753094, -0.031192097812891006, 0.06311266869306564, 0.03867010772228241, -0.012769474647939205, 0.009762980975210667]]], [[[0.06708759814500809, 0.10534650087356567, 0.06216772273182869, -0.005101238377392292, 0.025098783895373344, 0.08337265998125076, 0.06384282559156418, 0.0036033785436302423, -0.07039783149957657, -0.07557083666324615, -0.16065646708011627], [-0.005046154372394085, 0.08012203872203827, 0.02918260544538498, 0.05406664311885834, 0.06698763370513916, -0.04607943072915077, 0.07316186279058456, -0.02298700623214245, -0.026469098404049873, -0.07639693468809128, -0.15617121756076813], [-0.05863669142127037, -0.055722370743751526, -0.025826288387179375, 0.09374923259019852, 0.011355518363416195, 0.01001669093966484, 0.02854231558740139, -0.0658160150051117, -0.08212504535913467, -0.0330905057489872, -0.1271376758813858], [0.008312773890793324, -0.02838953584432602, 0.033521562814712524, 0.00197625532746315, 0.02841245010495186, 0.04543975740671158, -0.018901733681559563, -0.023059818893671036, -0.08301416039466858, -0.05539385974407196, 0.04937874898314476], [0.0448903888463974, 0.05706048756837845, -0.007286326494067907, 0.04845135658979416, 0.09137504547834396, 0.06922286003828049, 0.07088685780763626, 0.01593845896422863, -0.020180240273475647, -0.02764461748301983, -0.17056451737880707], [-0.07101497054100037, 0.07581640034914017, 0.03669987618923187, 0.14279553294181824, 0.13521753251552582, 0.06295008957386017, -0.022163936868309975, -0.10956243425607681, -0.11033684015274048, -0.1994609236717224, -0.14402519166469574], [-0.031813036650419235, -0.0436575822532177, 0.02378707379102707, -0.06456255167722702, -0.055103082209825516, -0.07643833756446838, -0.08751680701971054, -0.20736758410930634, -0.24519817531108856, -0.31080037355422974, -0.1600673943758011], [0.004333471413701773, -0.07248585671186447, -0.09604718536138535, -0.10549250990152359, -0.1852298378944397, -0.12758152186870575, -0.2189939171075821, -0.27686649560928345, -0.2187921553850174, -0.20954525470733643, -0.12254061549901962], [0.024217866361141205, -0.053726352751255035, -0.16217544674873352, -0.22468388080596924, -0.2376416027545929, -0.3440878689289093, -0.29554682970046997, -0.2933580279350281, -0.11316239833831787, -0.11007630079984665, -0.1424252837896347], [-0.08928022533655167, -0.07740965485572815, -0.1229955330491066, -0.3759908378124237, -0.4204593598842621, -0.2467028945684433, -0.268589586019516, -0.1179799884557724, 0.028220567852258682, 0.03601815178990364, -0.09486383944749832], [-0.007757358718663454, -0.17687349021434784, -0.12492245435714722, -0.21665094792842865, -0.2596196234226227, -0.12749044597148895, 0.03571586310863495, 0.015819823369383812, 0.0101516367867589, 0.005785331130027771, -0.10352933406829834]]], [[[-0.22396060824394226, -0.16362106800079346, -0.2118152379989624, -0.17422230541706085, -0.12735232710838318, -0.17094646394252777, -0.19185413420200348, -0.1766708940267563, -0.09974052757024765, 0.05532090365886688, 0.07073404639959335], [-0.11686032265424728, -0.1290675699710846, -0.08750079572200775, -0.10677260905504227, -0.025898318737745285, -0.10887767374515533, -0.07526146620512009, -0.056158795952796936, -0.1283416599035263, -0.018907994031906128, 0.03644976392388344], [-0.02462833747267723, -0.04402988404035568, 0.017000563442707062, -0.049858659505844116, 0.003237374359741807, -0.09009113162755966, -0.11572255194187164, -0.01846834272146225, -0.0012405666057020426, -0.07003321498632431, 0.025502804666757584], [-0.10474254935979843, -0.07889421284198761, -0.10297739505767822, -0.03106631338596344, -0.10775592178106308, -0.1198505088686943, -0.04330882802605629, -0.14519421756267548, 0.02126777358353138, -0.03313050419092178, 0.058441855013370514], [0.09733408689498901, 0.05170706659555435, -0.016665592789649963, -0.1517101377248764, -0.016588371247053146, -0.15005002915859222, -0.08374273777008057, -0.13170409202575684, -0.09007161110639572, 0.032090120017528534, 0.040631186217069626], [0.10269486159086227, 0.07392982393503189, 0.05174252390861511, -0.041313983500003815, -0.20370014011859894, -0.09241843968629837, -0.20998428761959076, -0.056134603917598724, -0.03992395102977753, -0.04625725373625755, -0.13055691123008728], [0.12333996593952179, 0.056269995868206024, 0.10018935054540634, -0.1254672259092331, -0.19198696315288544, -0.0829317644238472, -0.22034074366092682, -0.09500793367624283, -0.12607939541339874, 0.0203610397875309, -0.13090164959430695], [0.09953590482473373, 0.07339341193437576, 0.05664023011922836, -0.1635223627090454, -0.08940966427326202, -0.17890256643295288, -0.20107072591781616, -0.14937204122543335, -0.11664851754903793, 0.02750295028090477, -0.1316266804933548], [0.05433392897248268, -0.09618809819221497, -0.05805204063653946, -0.09136737883090973, -0.19543372094631195, -0.12111561000347137, -0.11297070235013962, -0.039044659584760666, -0.09920235723257065, 0.016492825001478195, -0.009174699895083904], [-0.12111104279756546, -0.05512218922376633, -0.08905646950006485, -0.0036202564369887114, -0.1755150705575943, -0.07799637317657471, -0.07097097486257553, -0.06621161103248596, -0.13940684497356415, -0.1265549212694168, -0.07365334033966064], [-0.11827500909566879, -0.10373422503471375, -0.14653880894184113, -0.1492822915315628, -0.07867252826690674, -0.09425605088472366, -0.14852944016456604, -0.1485164612531662, -0.10194842517375946, -0.15153567492961884, -0.08700233697891235]]], [[[-0.3276422321796417, -0.2771911323070526, -0.13230538368225098, -0.07333634048700333, -0.21909783780574799, -0.03924330323934555, 0.07262485474348068, 0.12060501426458359, 0.08163873106241226, 0.0659618005156517, -0.08913018554449081], [-0.14638981223106384, -0.2558530569076538, -0.2588609457015991, -0.08027496933937073, -0.13924729824066162, -0.0278044231235981, 0.05183024704456329, 0.1100117489695549, 0.04828661307692528, 0.00044587155571207404, 0.007957592606544495], [-0.20794345438480377, -0.13170352578163147, -0.10849630832672119, -0.10556504130363464, -0.0866512656211853, 0.061114657670259476, 0.030899295583367348, 0.12480756640434265, 0.047994665801525116, -0.00021328372531570494, -0.08794737607240677], [-0.04182618483901024, -0.07379081100225449, -0.1330663114786148, -0.07085885852575302, 0.03955458477139473, -0.08210141211748123, 0.06437414884567261, -0.012671430595219135, -0.07455705851316452, -0.1116984412074089, -0.20765423774719238], [-0.022579682990908623, -0.07219303399324417, -0.026404013857245445, -0.034453969448804855, -0.05514330044388771, -0.06147334724664688, 0.09105843305587769, 0.05671115592122078, 0.059899233281612396, -0.014715179800987244, -0.11763770133256912], [-0.06024491786956787, -0.08116768300533295, -0.046750251203775406, -0.009736594744026661, 0.027544084936380386, 0.0413440503180027, 0.08230442553758621, 0.12219268828630447, -0.07505969703197479, -0.12263534963130951, -0.19819426536560059], [-0.028464164584875107, -0.0783061534166336, -0.11318448185920715, -0.10519196838140488, -0.0010720108402892947, 0.0020629942882806063, -0.07361748814582825, 0.04324809089303017, 0.055577103048563004, -0.08631395548582077, -0.14103859663009644], [-0.1562015563249588, -0.08486758917570114, -0.1459796279668808, -0.06179657205939293, -0.012824040837585926, -0.02890833467245102, -0.07025216519832611, 0.04656575620174408, 0.021957358345389366, -0.09085550904273987, -0.10614984482526779], [-0.1853405088186264, -0.20209120213985443, -0.07239647954702377, -0.1038331538438797, -0.15220922231674194, -0.14603567123413086, -0.13531430065631866, -0.016332441940903664, -0.06470390409231186, -0.047845207154750824, -0.09970243275165558], [-0.08250800520181656, -0.15829001367092133, -0.10144374519586563, -0.08269146084785461, -0.10232844948768616, -0.101104237139225, -0.13529041409492493, -0.10824128240346909, -0.0032103601843118668, -0.040364015847444534, 0.05063078552484512], [-0.26221904158592224, -0.21101067960262299, -0.12837101519107819, -0.0801549181342125, -0.08300337940454483, -0.166448175907135, -0.17388810217380524, -0.13631951808929443, -0.16873431205749512, -0.0921112596988678, -0.10786629468202591]]], [[[-0.06306418031454086, -0.04628849774599075, 0.018275031819939613, -0.010360822081565857, 0.011855040676891804, -0.17873884737491608, -0.21649384498596191, -0.1301579773426056, 0.03737994283437729, -0.008472146466374397, 0.05512525141239166], [0.033749863505363464, -0.020114818587899208, -0.06307625770568848, 0.04983776807785034, -0.1542026251554489, -0.24896357953548431, -0.3020602762699127, -0.0891733393073082, 0.053137097507715225, 0.036122627556324005, 0.08538122475147247], [0.02640836499631405, -0.038791827857494354, 0.03043019399046898, -0.07301875203847885, -0.1866459995508194, -0.3208581209182739, -0.2094176560640335, -0.0492728054523468, 0.024977536872029305, 0.02269611321389675, 0.12172963470220566], [-0.07563342899084091, 0.05296587944030762, 0.054247792810201645, -0.16651307046413422, -0.30617132782936096, -0.3177017867565155, -0.16609695553779602, -0.014547182247042656, 0.10870135575532913, 0.0639972910284996, -0.02233281172811985], [-0.06598864495754242, -0.031879082322120667, -0.09328509867191315, -0.06543418765068054, -0.4347158372402191, -0.22642889618873596, -0.1699770838022232, -0.022323165088891983, 0.024505874142050743, 0.09397796541452408, 0.14276447892189026], [-0.12238240987062454, 0.03903355449438095, -0.07975082099437714, -0.19719159603118896, -0.43411675095558167, -0.17842748761177063, -0.12868821620941162, 0.045090511441230774, 0.017649570479989052, 0.0759943425655365, -0.02465144358575344], [-0.10842319577932358, -0.14835847914218903, -0.17782045900821686, -0.23281504213809967, -0.2706877887248993, -0.18437521159648895, -0.11599402874708176, 0.01785142906010151, 0.004551778081804514, -0.01868578977882862, 0.09425635635852814], [-0.15571455657482147, -0.16428647935390472, -0.1471078097820282, -0.2763001322746277, -0.2630481421947479, -0.046876002103090286, -0.09691980481147766, 0.06054697558283806, 0.015107832849025726, 0.08777225017547607, 0.017785318195819855], [-0.23796546459197998, -0.1460074633359909, -0.2003873586654663, -0.06041755527257919, -0.11911904811859131, -0.02697852812707424, -0.01824239268898964, 0.014406071975827217, -0.06786532700061798, 0.013174035586416721, -0.06380128860473633], [-0.0686313658952713, -0.09405510127544403, -0.085121288895607, -0.14795786142349243, -0.0955459251999855, -0.10562194883823395, -0.004100737161934376, 0.04123735427856445, -0.0414019413292408, 0.08857598900794983, 0.04784605652093887], [-0.013049948960542679, -0.07353723049163818, -0.01909434236586094, -0.09995856136083603, 0.04642878845334053, -0.05091242492198944, 0.0754384696483612, 0.060789044946432114, 0.016907621175050735, 0.05872117355465889, 0.05837806686758995]]], [[[0.13625343143939972, 0.2134922295808792, 0.1266627013683319, 0.021026309579610825, -0.03444521129131317, -0.13288478553295135, -0.09316668659448624, 0.0773405060172081, -0.0209308210760355, 0.017056399956345558, -0.002568197203800082], [0.1903870403766632, 0.13640475273132324, -0.004596773535013199, -0.23545527458190918, -0.1548948436975479, -0.12822197377681732, -0.07086626440286636, 0.00899115763604641, 0.12863986194133759, -0.08479757606983185, -0.005717705935239792], [0.08851294219493866, -0.047100622206926346, -0.32687896490097046, -0.4292677342891693, -0.31558993458747864, -0.15222501754760742, -0.022584252059459686, -0.0015948910731822252, -0.018076596781611443, 0.08379387110471725, -0.009030463173985481], [-0.15591725707054138, -0.3097231388092041, -0.427009642124176, -0.3087897300720215, -0.06359484791755676, 0.03862183168530464, 0.06873777508735657, 0.11245908588171005, -0.033343035727739334, 0.003343841526657343, 0.036479271948337555], [-0.19401344656944275, -0.32340410351753235, -0.23952670395374298, -0.12153543531894684, 0.012592528946697712, 0.14772474765777588, 0.04065068066120148, 0.09073209017515182, -0.008462761528789997, -0.013822415843605995, -0.03081873431801796], [-0.200228750705719, -0.22120538353919983, 0.0028132093138992786, 0.08096929639577866, 0.06105861812829971, 0.06602653861045837, 0.03697822242975235, -0.0741543397307396, -0.05291103199124336, 0.048052478581666946, 0.01853952929377556], [-0.1499723643064499, 0.028050929307937622, 0.11519930511713028, 0.14925706386566162, 0.17004305124282837, 0.1223689392209053, 0.007663640193641186, 0.022116057574748993, -0.023911859840154648, 0.03679988533258438, -0.05751786008477211], [-0.03333453834056854, -0.015432520769536495, 0.13679417967796326, 0.024440649896860123, 0.11774391680955887, -0.025839464738965034, 0.018703259527683258, -0.08397449553012848, -0.04072482883930206, 0.01966007985174656, 0.07868990302085876], [0.027110949158668518, 0.10671653598546982, 0.07502005249261856, 0.11715445667505264, 0.07584160566329956, -0.09049239754676819, -0.047594472765922546, 0.02507498301565647, -0.041028574109077454, -0.031655024737119675, -0.043972935527563095], [0.07273774594068527, -0.037384383380413055, 0.05470631271600723, 0.06271829456090927, -0.07774526625871658, 0.006152523215860128, -0.11261237412691116, -0.00038282349123619497, -0.010372107848525047, -0.03688210994005203, 0.015059360302984715], [0.027217617258429527, 0.043983589857816696, 0.04064725711941719, 0.14705327153205872, 0.0019124719547107816, 0.02244504541158676, 0.10360382497310638, -0.011452142149209976, 0.09645801037549973, 0.14834782481193542, 0.08771424740552902]]], [[[-0.132870152592659, -0.028611566871404648, -0.09800635278224945, -0.23470762372016907, -0.16818000376224518, -0.05671786144375801, 0.007138097658753395, 0.05636446923017502, -0.06924036145210266, -0.17137113213539124, -0.2566777467727661], [-0.058371711522340775, -0.0041433279402554035, -0.18557947874069214, -0.17434974014759064, -0.06326756626367569, 0.054775919765233994, 0.09320276975631714, 0.07847867161035538, 0.02359789051115513, -0.10471229255199432, -0.1811538189649582], [0.035662006586790085, -0.10477830469608307, -0.08417405933141708, -0.10299070179462433, -0.05449645593762398, 0.022625526413321495, 0.11117532104253769, 0.2115190029144287, 0.033767569810152054, -0.0585438571870327, -0.08975078165531158], [0.015556649304926395, -0.09373041987419128, -0.23016640543937683, -0.17699453234672546, -0.01854698732495308, 0.041693296283483505, 0.05207281932234764, 0.1905009001493454, 0.08669363707304001, -0.05329154059290886, 0.026621049270033836], [-0.06176619604229927, -0.18334032595157623, -0.14914396405220032, -0.2147587388753891, -0.04160216078162193, 0.07018931955099106, 0.07815727591514587, 0.007159494329243898, -0.06631895899772644, -0.0526963472366333, 0.019136948511004448], [0.028754817321896553, -0.12401064485311508, -0.14375804364681244, -0.09022402763366699, -0.17258717119693756, -0.13011358678340912, 0.033422477543354034, -0.03169949725270271, -0.12260080128908157, -0.08075752854347229, -0.005320306867361069], [-0.029549963772296906, -0.09890034794807434, -0.10235847532749176, -0.14608582854270935, -0.13236480951309204, -0.17521177232265472, -0.0825233981013298, 0.0495072640478611, -0.1513911634683609, -0.17459528148174286, -0.08391694724559784], [0.01759643666446209, 0.0717473030090332, -0.09748979657888412, -0.05366919934749603, 0.03240301460027695, -0.08513728529214859, 0.023715276271104813, -0.07205237448215485, -0.0625501200556755, -0.19905079901218414, -0.0019679157994687557], [-0.024813534691929817, 0.016582731157541275, 0.04014119878411293, 0.11585618555545807, 0.09931235015392303, 0.07421787828207016, -0.06253477185964584, 0.01756400242447853, -0.16884320974349976, -0.03748584911227226, -0.09658411890268326], [-0.10349911451339722, 0.06307157129049301, -0.008260341361165047, 0.08360284566879272, 0.0526701919734478, 0.07425995916128159, -0.007197883445769548, 0.02530698850750923, -0.13268816471099854, -0.1150784119963646, -0.13452275097370148], [-0.18206411600112915, -0.12455170601606369, -0.08774740993976593, -0.009668244048953056, 0.06434564292430878, 0.10682559013366699, -0.00658193277195096, 0.06027950718998909, -0.06417900323867798, -0.14732271432876587, -0.0038261793088167906]]], [[[0.05145949125289917, 0.11249421536922455, 0.05271980166435242, -0.05843966081738472, -0.06337405741214752, -0.2549925744533539, -0.18431171774864197, -0.20759935677051544, -0.2296632081270218, -0.24579006433486938, -0.5203375816345215], [0.08949489146471024, 0.12228497117757797, 0.018881646916270256, -0.16174593567848206, -0.032136838883161545, -0.12976928055286407, 0.09070145338773727, 0.05749812349677086, -0.05576619878411293, -0.23669259250164032, -0.40030187368392944], [0.06853518635034561, 0.10238825529813766, -0.029832573607563972, -0.07612431794404984, -0.013426669873297215, -0.021630825474858284, 0.1315028965473175, 0.08349478989839554, -0.06648264080286026, -0.17345207929611206, -0.1895272433757782], [0.025647606700658798, -0.0809980183839798, -0.03369932249188423, -0.06282460689544678, -0.08068875223398209, -0.018102239817380905, -0.01761738769710064, -0.057474710047245026, -0.08287978172302246, -0.04304734617471695, -0.11821667104959488], [-0.13819308578968048, -0.11280131340026855, 0.03372024744749069, -0.16905851662158966, -0.1611705720424652, 0.04186861217021942, -0.09367042779922485, -0.16859708726406097, -0.2656101584434509, -0.08520209044218063, -0.005075029097497463], [-0.2026190161705017, -0.12384091317653656, -0.03267954662442207, -0.04732123762369156, -0.16831257939338684, -0.04163447022438049, -0.19267483055591583, -0.21804238855838776, -0.1987786740064621, -0.01932484470307827, -0.004116659052670002], [-0.11941283941268921, -0.21422594785690308, -0.02322610281407833, -0.1338137537240982, -0.05424302816390991, -0.18914076685905457, -0.2755943238735199, -0.2808389663696289, -0.14132025837898254, -0.14508704841136932, 0.08568733185529709], [-0.030679188668727875, 0.003568242071196437, -0.08831243216991425, -0.11269153654575348, -0.12359003722667694, -0.20811490714550018, -0.31353068351745605, -0.09927216917276382, -0.03077138401567936, 0.024271905422210693, 0.09665921330451965], [-0.03159806877374649, 0.043603815138339996, -0.04778829589486122, -0.1080104187130928, -0.2996809780597687, -0.29608941078186035, -0.21269184350967407, -0.17910674214363098, 0.02722812630236149, -0.015763424336910248, 0.1260320246219635], [0.06960542500019073, -0.05388851463794708, 0.01104969996958971, -0.023371456190943718, -0.05710671469569206, -0.17164091765880585, -0.12337426841259003, -0.03374357521533966, 0.006855584215372801, 0.13587124645709991, 0.1903436928987503], [0.09037533402442932, -0.016600456088781357, 0.10537353903055191, 0.006004082504659891, 0.016723105683922768, 0.02035834826529026, -0.03905714303255081, -0.007465597242116928, -0.016719374805688858, 0.1337229162454605, 0.18161524832248688]]], [[[0.034513551741838455, 0.08921016752719879, -0.009552697651088238, -0.03415656462311745, -0.0543549470603466, -0.033056020736694336, 0.03286822512745857, -0.032377663999795914, 0.0627676323056221, -0.0411909818649292, -0.1320095658302307], [0.12428925931453705, 0.11725308746099472, 0.01974983513355255, -0.08943650871515274, -0.041630569845438004, 0.014170362614095211, 0.07510267943143845, 0.07151732593774796, 0.06832656264305115, 0.009051204659044743, -0.03668716177344322], [0.03835723549127579, -0.04924897104501724, -0.043431419879198074, -0.11102630943059921, -0.07358164340257645, 0.10379339754581451, 0.040373146533966064, 0.06936641782522202, 0.083328016102314, -0.038676876574754715, -0.04754224419593811], [0.0011625430779531598, -0.08944696933031082, -0.0197491142898798, -0.12028355151414871, -0.06843399256467819, -0.028905481100082397, 0.01683914102613926, -0.01330819632858038, 0.12805436551570892, 0.12510564923286438, -0.0627036988735199], [0.059115633368492126, -0.1435222178697586, -0.2245808243751526, -0.12875913083553314, -0.06166159361600876, -0.1537156105041504, -0.05051174759864807, 0.03584561496973038, 0.05873069167137146, 0.1094570979475975, -0.04563208296895027], [-0.023749398067593575, -0.060924552381038666, -0.03899285942316055, -0.2212262898683548, -0.11425546556711197, -0.18704409897327423, -0.12188746780157089, -0.05443965643644333, 0.09025140106678009, 0.08889086544513702, 0.05941193923354149], [-0.11048649251461029, -0.134964257478714, -0.15877890586853027, -0.07017817348241806, -0.19765503704547882, -0.19635194540023804, -0.22113151848316193, -0.1131775751709938, 0.0863937959074974, 0.0739506185054779, 0.02846418134868145], [-0.07288886606693268, 0.08264724165201187, 0.07170327752828598, -0.05768294632434845, -0.10066123306751251, -0.12617912888526917, -0.18474659323692322, -0.057760801166296005, 0.04245920851826668, 0.04084041342139244, 0.0019887287635356188], [-0.03571315482258797, 0.11202893406152725, 0.11886069178581238, 0.11062697321176529, 0.007297841366380453, -0.1311771720647812, -0.15043549239635468, -0.13564780354499817, 0.008556288667023182, 0.07406922429800034, 0.08914843946695328], [0.0655939057469368, 0.1498507857322693, 0.03727864846587181, 0.10901015251874924, 0.12462399154901505, -0.022321606054902077, -0.0567435584962368, -0.011282435618340969, -0.08759559690952301, 0.061068080365657806, 0.03394557163119316], [-0.027010999619960785, 0.09130918979644775, 0.11578189581632614, 0.15373572707176208, 0.14907678961753845, -0.0467509888112545, 0.027210025116801262, 0.07211276143789291, 0.059095486998558044, -0.07068445533514023, 0.033907536417245865]]], [[[-0.1325703263282776, -0.061105914413928986, -0.1031801700592041, 0.04796147719025612, 0.008688044734299183, 0.032632894814014435, -0.07176844775676727, -0.027823584154248238, 0.022261878475546837, -0.12906745076179504, -0.11652307212352753], [0.04910964146256447, -0.00553924823179841, 0.03204837068915367, 0.05585761368274689, -0.0426897294819355, 0.019151873886585236, -0.0017187255434691906, 0.018513809889554977, -0.03499167412519455, -0.04100426286458969, -0.09034489095211029], [-0.06765052676200867, -0.07648483663797379, -0.04204293712973595, 0.0032380581833422184, -0.035090524703264236, -0.02721242979168892, -0.0764026865363121, -0.020431870594620705, -0.09483477473258972, -0.06721436232328415, -0.08569861948490143], [0.04657546803355217, -0.09681397676467896, 0.004516466986387968, -0.06455348432064056, 0.011433209292590618, 0.050374582409858704, -0.07550081610679626, -0.03912759944796562, -0.0955519750714302, 0.036966465413570404, -0.0008177058771252632], [0.022994959726929665, 0.0428227074444294, -0.06262112408876419, 0.04438254237174988, 0.03648602217435837, -0.03627321869134903, 0.0377332977950573, -0.006922832690179348, -0.025560172274708748, 0.009629650972783566, -0.1312505304813385], [0.006230575498193502, -0.02677028812468052, 0.01726544462144375, -0.02600088156759739, -0.0666954293847084, 0.048027489334344864, -0.012437619268894196, -0.045463889837265015, 0.03089144639670849, -0.02920350804924965, -0.08024638891220093], [-0.08744045346975327, -0.09075528383255005, 0.01565278135240078, -0.1156080812215805, -0.059863194823265076, 0.05810609087347984, -0.04705141484737396, 0.03065626509487629, 0.06033565476536751, 0.010015275329351425, 0.02961822785437107], [0.01953943446278572, -0.026138857007026672, 0.05357195809483528, 0.005773591343313456, 0.05530759319663048, -0.00012149057147325948, -0.05643026530742645, 0.013352114707231522, -0.006402802187949419, -0.08563049137592316, -0.06988821923732758], [-0.03688047081232071, 0.03754892200231552, 0.022724293172359467, 0.05866950750350952, 0.05450816825032234, 0.03866168111562729, 0.002777279820293188, 0.03102198615670204, 0.07151651382446289, -0.000886720372363925, -0.04497741907835007], [-0.05180806294083595, 0.01873845048248768, 0.04481179639697075, -0.04593626409769058, -0.11199505627155304, 0.04032306745648384, 0.0378556028008461, -0.11194418370723724, -0.0012057649437338114, -0.10137483477592468, 0.06530424952507019], [0.007151082623749971, 0.0020319614559412003, -0.01534269843250513, -0.01173378061503172, -0.013336947187781334, -0.13128364086151123, -0.005027401726692915, -0.03715820983052254, -0.029277553781867027, -0.0016705371672287583, 0.04623643681406975]]]], "accuracies": 0.954}, "3": {"scales_p1": [0.7108569741249084, 0.6976462006568909, 0.693322479724884, 0.23973146080970764, 0.6155585050582886, 0.4096248149871826, 0.6774856448173523, 0.8649453520774841, 0.5524557828903198, 0.9866306781768799, 0.5042604207992554, 0.6571512222290039, 0.9810764193534851, 0.6058112978935242, 0.5445890426635742, 0.6787436008453369, 0.9449135065078735, 0.253313273191452, 0.8080228567123413, 0.49155864119529724], "scales_p2": [1.0, 0.7179595828056335, 0.6261438131332397, 0.6144294142723083, 0.9633347392082214, 0.8394225239753723, 0.7827225923538208, 0.716853678226471, 0.5976967811584473, 0.7092180252075195, 0.9359875321388245, 0.6778663396835327, 0.6932940483093262, 0.8919215202331543, 0.7221778631210327, 0.8937808275222778, 0.8622530698776245, 0.7714833617210388, 0.9742717742919922, 0.7925184965133667, 0.7502905130386353, 0.7787672281265259, 0.7274177074432373, 0.7531206607818604, 0.7359771728515625, 0.4379059672355652, 0.8673222661018372, 0.7887691855430603, 0.9069621562957764, 0.48393094539642334, 0.9142059087753296, 0.6485339403152466, 0.6365591287612915, 0.6930640339851379, 0.9810845255851746, 0.6052253842353821, 0.9413419961929321, 0.6546793580055237, 1.0401054620742798, 0.7785752415657043, 0.5936487317085266, 0.6702083349227905, 1.0, 0.8558664917945862, 0.5589448809623718, 0.8201335072517395, 0.6991528868675232, 0.8423008322715759, 0.5545265078544617, 0.783610463142395], "conv_weights": [[[[0.03019983321428299, -0.11132752150297165, -0.13356570899486542, -0.11054977029561996, -0.08316385746002197, -0.04485194757580757, 0.08174926787614822, 0.021163227036595345, 0.12491613626480103, 0.062070876359939575, -0.014691242016851902, -0.03633653372526169, -0.029357928782701492, 0.01358445081859827, -0.014318354427814484], [-0.00398358516395092, -0.046302396804094315, -0.10947861522436142, -0.09941751509904861, -0.11122296005487442, -0.1204560399055481, -0.07487952709197998, -0.06989863514900208, -0.03341078385710716, -0.018582621589303017, -0.0522654689848423, -0.013090508989989758, 0.04766669496893883, 0.030844565480947495, -0.04007468745112419], [0.017743762582540512, 0.011075139045715332, -0.1238432452082634, -0.017032278701663017, -0.1698642522096634, -0.20626796782016754, -0.0789363905787468, -0.07967997342348099, 0.0009878212586045265, 0.01922529563307762, -0.039626456797122955, 0.007686610333621502, 0.02669692225754261, -0.041588831692934036, 0.054713040590286255], [0.06167316809296608, 0.0029635054524987936, -0.03240584954619408, -0.13293783366680145, -0.12459766864776611, -0.26351431012153625, -0.1335277408361435, 0.0025817989371716976, 0.05243610218167305, 0.04380149394273758, -0.031926125288009644, -0.03822403401136398, 0.009951470419764519, -0.03693656995892525, -0.06758317351341248], [0.09205202758312225, 0.09396488964557648, -0.00490384828299284, -0.02846868894994259, -0.141884446144104, -0.2537156343460083, -0.09811287373304367, -0.08955302834510803, 0.03862827271223068, -0.010393032804131508, 0.024323664605617523, -0.023281846195459366, -0.02876429259777069, -0.010055783204734325, -0.06361377984285355], [0.09888194501399994, 0.026044286787509918, 0.02134259231388569, -0.08505890518426895, -0.09985797107219696, -0.15310518443584442, -0.2170238345861435, -0.10120696574449539, -0.05438496917486191, 0.03937337547540665, 0.051062583923339844, 0.05860089883208275, 0.027324765920639038, 0.06443172693252563, 0.03338106721639633], [0.06740788370370865, 0.0009245999972335994, -0.03040066361427307, -0.03405088186264038, -0.08277157694101334, -0.23051299154758453, -0.12018230557441711, -0.08471088111400604, -0.05378111079335213, 0.01094937976449728, -0.04850209504365921, -0.03655562549829483, -0.0407908633351326, -0.0384175144135952, -0.0014442980755120516], [0.08858117461204529, 0.11732567846775055, -0.020212959498167038, -0.05095260590314865, -0.11118294298648834, -0.11079876124858856, -0.1204712763428688, -0.13950537145137787, -0.04777238517999649, 0.024303384125232697, -0.067606121301651, 0.05656067281961441, 0.014847420156002045, -0.04501747712492943, -0.08095134049654007], [0.07274588197469711, 0.12358706444501877, 0.10459686815738678, 0.04481527954339981, -0.032626986503601074, -0.14607910811901093, -0.12444703280925751, -0.17579948902130127, -0.031789977103471756, -0.1154002770781517, 0.012564483098685741, -0.0166834257543087, 0.0323161780834198, -0.0032893684692680836, 0.03607119247317314], [0.017131224274635315, 0.07643825560808182, -0.013552799820899963, 0.012217037379741669, 0.034338220953941345, -0.05590960383415222, -0.1724967509508133, -0.19324515759944916, -0.053051333874464035, -0.10901978611946106, -0.07788637280464172, -0.0613994374871254, 0.028777126222848892, 0.0378570482134819, -0.0019427300430834293], [0.06156930699944496, 0.11787613481283188, 0.08953239768743515, 0.0878833457827568, 0.044018398970365524, -0.09689756482839584, -0.04537798464298248, -0.08917912095785141, -0.18120664358139038, -0.03934445232152939, -0.08442508429288864, 0.0010686942841857672, -0.01601155661046505, -0.05773698911070824, 0.04845541715621948], [0.04680176079273224, 0.04069751128554344, 0.06192399561405182, 0.043383415788412094, -0.051989857107400894, -0.0022044943179935217, -0.029250917956233025, -0.07998810708522797, -0.20615839958190918, -0.09889357537031174, -0.01678694784641266, -0.06689761579036713, 0.051128000020980835, 0.011887641623616219, -0.029614172875881195], [0.11115679889917374, -0.002867246512323618, 0.037559639662504196, 0.09432083368301392, -0.003929294645786285, -0.06740733981132507, -0.07330287247896194, -0.18649473786354065, -0.23521484434604645, -0.15305158495903015, -0.10792374610900879, -0.06513030081987381, 0.08302833884954453, 0.08290226012468338, 0.008811351843178272], [0.08166015893220901, -0.026092952117323875, 0.05693384259939194, 0.030790340155363083, 0.055563054978847504, -0.09787479788064957, -0.0775512158870697, -0.08277451992034912, -0.13106533885002136, -0.1880521923303604, -0.15139949321746826, -0.06981559097766876, -0.04545057564973831, -0.025075633078813553, -0.022278469055891037], [0.07940476387739182, -0.002136475872248411, 0.06318151950836182, 0.017502417787909508, -0.029231319203972816, -0.0937548503279686, -0.12612037360668182, -0.11258122324943542, -0.226425439119339, -0.14012004435062408, -0.17989538609981537, -0.12716923654079437, -0.0852440893650055, 0.033215928822755814, -0.005319494288414717]]], [[[-0.10918442904949188, -0.013101532123982906, -0.13269659876823425, -0.14211107790470123, -0.1528131067752838, -0.09219775348901749, -0.06095706671476364, -0.0900423601269722, -0.0906657874584198, -0.06063488498330116, 0.05708780512213707, 0.010743285529315472, 0.09171050786972046, 0.05861169472336769, -0.006030499469488859], [-0.013078490272164345, -0.016222836449742317, -0.00046508258674293756, -0.0075645470060408115, -0.17679013311862946, -0.18787220120429993, -0.1394040435552597, -0.10122352838516235, -0.0731646940112114, -0.08205600827932358, 0.06272826343774796, 0.08552088588476181, 0.11659164726734161, 0.06959812343120575, 0.05201355367898941], [-0.022401027381420135, -0.1224125400185585, -0.0766582265496254, -0.014512607827782631, 0.014783496037125587, -0.11668860912322998, -0.08579649776220322, -0.1882236897945404, -0.15426626801490784, -0.14830975234508514, -0.019240379333496094, -0.006368564907461405, 0.0727134495973587, 0.05536900460720062, 0.03191737085580826], [0.008483904413878918, -0.12760356068611145, -0.054180022329092026, -0.03534659370779991, -0.07479477673768997, -0.1201351061463356, -0.18446826934814453, -0.26490193605422974, -0.1535331904888153, -0.15634772181510925, -0.07032066583633423, -0.03078128956258297, 0.09761771559715271, 0.04412392899394035, 0.09645353257656097], [-0.05418964475393295, -0.06207992881536484, -0.12097399681806564, -0.07516223192214966, -0.024883635342121124, -0.12012971192598343, -0.3353500962257385, -0.27540135383605957, -0.3947502374649048, -0.2440464049577713, -0.09537467360496521, -0.10467252135276794, -0.03932899609208107, -0.018559522926807404, 0.05148398503661156], [0.00767139345407486, -0.11794883012771606, -0.052225999534130096, -0.05210651457309723, -0.04020889848470688, -0.22268472611904144, -0.19682499766349792, -0.35793447494506836, -0.33787423372268677, -0.20510360598564148, -0.20481951534748077, -0.14435173571109772, 0.015535777434706688, 0.07501842826604843, 0.1430072784423828], [-0.033888597041368484, -0.11430706828832626, -0.03454462066292763, -0.12175428867340088, -0.14126813411712646, -0.16822966933250427, -0.16646216809749603, -0.26910266280174255, -0.35905757546424866, -0.2686232626438141, -0.25626885890960693, -0.1272650957107544, 0.0038666967302560806, 0.032783206552267075, 0.10119790583848953], [-0.0911983922123909, -0.12680892646312714, -0.054317351430654526, -0.06405249238014221, -0.08136815577745438, -0.23235154151916504, -0.1502513587474823, -0.31245729327201843, -0.30778035521507263, -0.2868034541606903, -0.26570925116539, -0.17313115298748016, -0.0699337050318718, -0.025451090186834335, 0.12159857898950577], [-0.06531089544296265, -0.10183461010456085, -0.05501634255051613, -0.08447492867708206, -0.025627177208662033, -0.08541534841060638, -0.06185732036828995, -0.23996654152870178, -0.2790944576263428, -0.2566941976547241, -0.28457459807395935, -0.1473446488380432, -0.09883705526590347, -0.0534273236989975, 0.040565911680459976], [0.005643532611429691, 0.020306529477238655, -0.028426524251699448, 0.05135590210556984, -0.026094011962413788, -0.02300318144261837, -0.03612133115530014, -0.11781173199415207, -0.2561762034893036, -0.30095186829566956, -0.2523135840892792, -0.2370467185974121, -0.09330060333013535, -0.06335178017616272, 0.03688153624534607], [-0.03554874286055565, 0.032256949692964554, 0.0824827253818512, 0.005556219257414341, 0.04524247348308563, -6.873540405649692e-05, -0.05095687508583069, -0.045127984136343, -0.18209977447986603, -0.2997969090938568, -0.2959150969982147, -0.29231444001197815, -0.10823776572942734, -0.05511932820081711, -0.03531014546751976], [-0.06716255843639374, 0.04567970335483551, 0.024515114724636078, 0.12028375267982483, 0.11244843900203705, 0.00016947690164670348, 0.052594516426324844, -0.04369097203016281, -0.10506093502044678, -0.16199122369289398, -0.32387298345565796, -0.3310934007167816, -0.17954738438129425, -0.12044114619493484, 0.016442490741610527], [-0.013444987125694752, 0.039214856922626495, -0.011850793845951557, 0.06505312025547028, 0.023916607722640038, 0.11076728254556656, 0.004445338621735573, 0.005541201680898666, -0.06397651135921478, -0.19837984442710876, -0.2421838641166687, -0.34365206956863403, -0.19805683195590973, -0.09372842311859131, -0.12290707230567932], [-0.012778164818882942, 0.04653961956501007, 0.058921441435813904, 0.09831439703702927, 0.026895441114902496, 0.09691087901592255, 0.11762325465679169, 0.02763855829834938, -0.07826139032840729, -0.05551249533891678, -0.2180052250623703, -0.2721376419067383, -0.2372814118862152, -0.16867117583751678, -0.14261522889137268], [0.031870778650045395, 0.06721670180559158, -0.019082238897681236, 0.11416762322187424, 0.06016159802675247, 0.06771813333034515, 0.019155245274305344, 0.0232952032238245, -0.09440497308969498, -0.06747321784496307, -0.09113011509180069, -0.11146672070026398, -0.13573017716407776, -0.20239019393920898, -0.15414050221443176]]], [[[0.08491165190935135, 0.07522594928741455, 0.07665269821882248, 0.1292591542005539, 0.01777724176645279, 0.06542263925075531, 0.02786051109433174, -0.04398781806230545, -0.034768689423799515, -0.13742245733737946, -0.0995912179350853, -0.14448530972003937, -0.18312226235866547, -0.16519324481487274, -0.09908479452133179], [0.048665374517440796, -0.006606609094887972, 0.034951504319906235, 0.09729716926813126, 0.10368601977825165, 0.09350431710481644, 0.005309075117111206, 0.004705897066742182, -0.012060321867465973, -0.08405448496341705, -0.17019690573215485, -0.2611294686794281, -0.21999552845954895, -0.21567291021347046, -0.024641282856464386], [0.0005370582803152502, 0.06993555277585983, 0.05672986060380936, 0.11780077964067459, 0.1104632019996643, 0.019968727603554726, 0.03385602682828903, 0.018411843106150627, -0.09455615282058716, -0.10241004079580307, -0.13646019995212555, -0.2786778211593628, -0.2546406686306, -0.21385926008224487, -0.12608380615711212], [-0.024885449558496475, 0.053601402789354324, 0.09362726658582687, 0.009225930087268353, 0.05673280358314514, -0.025023676455020905, 0.059081800282001495, -0.0732269361615181, -0.05099383741617203, -0.1196971908211708, -0.17186395823955536, -0.18451988697052002, -0.16678309440612793, -0.2360919713973999, -0.06810912489891052], [0.020850589498877525, 0.008908589370548725, 0.0058494494296610355, -0.048273470252752304, 0.0115338284522295, -0.02809825912117958, -0.09017211198806763, -0.0682096928358078, -0.1100834459066391, -0.14790576696395874, -0.07705147564411163, -0.2087026983499527, -0.31615546345710754, -0.21318776905536652, -0.18081942200660706], [-0.006796886678785086, -0.061179351061582565, -0.10869137942790985, -0.032073166221380234, 0.0029006805270910263, -0.06338523328304291, -0.11241833120584488, -0.04583968594670296, -0.12938743829727173, -0.046924639493227005, -0.0649995356798172, -0.07499300688505173, -0.24380828440189362, -0.2063675969839096, -0.24227391183376312], [-0.1688121110200882, -0.10879293084144592, -0.077010378241539, -0.1772993952035904, -0.0843413770198822, -0.06961149722337723, -0.058934327214956284, -0.09634307771921158, -0.19681796431541443, -0.16057747602462769, -0.17075398564338684, -0.2195844203233719, -0.19095765054225922, -0.1732342392206192, -0.2088846117258072], [-0.19321216642856598, -0.29021573066711426, -0.2982963025569916, -0.25970563292503357, -0.17358994483947754, -0.18757092952728271, -0.1803385466337204, -0.20821122825145721, -0.2183952033519745, -0.1702243834733963, -0.21524560451507568, -0.11272619664669037, -0.1388007253408432, -0.1920279711484909, -0.30936428904533386], [-0.2750590443611145, -0.2807111442089081, -0.3091578483581543, -0.21999582648277283, -0.25693321228027344, -0.20766496658325195, -0.19914858043193817, -0.07752169668674469, -0.18590892851352692, -0.12977974116802216, -0.11948073655366898, -0.11298885196447372, -0.19067427515983582, -0.19873695075511932, -0.2742343842983246], [-0.29940497875213623, -0.32549965381622314, -0.19858907163143158, -0.09575292468070984, -0.1341378092765808, -0.006751570384949446, -0.09701480716466904, -0.03365689888596535, -0.06102793291211128, -0.13542693853378296, -0.11748788505792618, -0.21130429208278656, -0.1526227742433548, -0.26124316453933716, -0.2708171308040619], [-0.15812832117080688, -0.1819700300693512, -0.05820256099104881, 0.03525549918413162, -0.05698173865675926, 0.04461056739091873, -0.035700999200344086, 0.017491336911916733, 0.01772611401975155, -0.028950057923793793, -0.13246095180511475, -0.23711219429969788, -0.1499045044183731, -0.19578590989112854, -0.20313210785388947], [-0.18154124915599823, -0.06272315979003906, 0.03651345893740654, -0.0013237232342362404, 0.0844149962067604, 0.07469633966684341, 0.10688398778438568, 0.038919270038604736, 0.04802165552973747, -0.05631955713033676, -0.11836975067853928, -0.11163832247257233, -0.13462989032268524, -0.10216023772954941, -0.12365026772022247], [-0.04691620171070099, -0.008044126443564892, -0.015927188098430634, 0.03300134837627411, 0.07641392946243286, 0.06994204223155975, 0.08111981302499771, 0.12222357839345932, 0.02856636419892311, -0.005980209447443485, -0.11045947670936584, -0.09912808239459991, -0.12853941321372986, -0.03162277862429619, -0.1832982301712036], [-0.17676328122615814, -0.059112079441547394, -0.05548449978232384, -0.1230243667960167, 0.005052648019045591, -0.0025973711162805557, 0.06036941334605217, -0.003474741941317916, -0.0009769846219569445, -0.021253006532788277, -0.1298794001340866, -0.04639266058802605, -0.02499931864440441, -0.08581514656543732, -0.12808994948863983], [-0.24969089031219482, -0.2538631856441498, -0.17090465128421783, -0.0802515298128128, -0.03029605932533741, 0.018597077578306198, -0.0766911432147026, -0.005560233723372221, -0.11175692081451416, -0.02256874367594719, -0.0735851302742958, -0.02864096686244011, -0.024769945070147514, -0.03961081802845001, -0.1378980427980423]]], [[[-0.0051622153259813786, 0.019529914483428, -0.07998159527778625, -0.013788971118628979, -0.0002138437412213534, -0.0010925517417490482, 0.06163596361875534, 0.021438520401716232, -0.014335263520479202, 0.06399966776371002, -0.07387270033359528, -0.019110040739178658, -0.16887161135673523, -0.09712892770767212, -0.22471347451210022], [0.018807202577590942, -0.005253342445939779, -0.12397613376379013, 0.00974794290959835, 0.04764707386493683, -0.015486689284443855, 0.02072163298726082, 0.026340460404753685, 0.0316789485514164, -0.014087796211242676, 0.03126657381653786, -0.03869078308343887, -0.10097873210906982, -0.11869276314973831, -0.104903943836689], [-0.09782916307449341, -0.09355586022138596, -0.04908909648656845, -0.057791661471128464, -0.03789224475622177, 0.03984691947698593, -0.013607854954898357, 0.05196405202150345, 0.05967464670538902, 0.000672609661705792, -0.053957436233758926, -0.11356747150421143, -0.04849384352564812, -0.1137697696685791, -0.12808090448379517], [-0.04743329808115959, -0.1705528050661087, -0.11805521696805954, -0.030362559482455254, -0.019851721823215485, 0.05399925261735916, 0.07123569399118423, 0.0639982521533966, 0.024406559765338898, -0.002133514964953065, -0.011876578442752361, -0.03487647697329521, -0.12172811478376389, -0.071548692882061, -0.15321099758148193], [-0.17819035053253174, -0.12670941650867462, -0.11012908071279526, -0.016999661922454834, -0.06989265233278275, 0.05591375380754471, 0.04579257220029831, 0.053836166858673096, 0.08897842466831207, 0.0808202251791954, 0.014417177997529507, -0.02844206802546978, -0.1288355588912964, -0.10537861287593842, -0.16644640266895294], [-0.20109966397285461, -0.21505090594291687, -0.06842193007469177, -0.02441575564444065, -0.006931030657142401, -0.0180283784866333, 0.07873520255088806, -0.04438326507806778, 0.034028612077236176, -0.017373034730553627, 0.0031490016262978315, -0.013354220427572727, -0.027387503534555435, -0.10840246826410294, -0.11498706042766571], [-0.1731192022562027, -0.09970264881849289, -0.07104714959859848, -0.1091352179646492, 0.0400872603058815, -0.010499229654669762, 0.04848744347691536, 0.023234153166413307, -0.03864751011133194, -0.02539045549929142, -0.027928249910473824, -0.03831040486693382, -0.09973456710577011, -0.06403090804815292, -0.08037783205509186], [-0.0634380578994751, -0.09124908596277237, -0.16075275838375092, -0.12137068808078766, -0.027679648250341415, 0.031212452799081802, -0.01958547718822956, 0.017685702070593834, 0.0019604689441621304, -0.06448221951723099, -0.02666015550494194, -0.05925066024065018, -0.09014133363962173, -0.1295122504234314, -0.01003270037472248], [-0.05622020363807678, -0.05564405396580696, -0.11445538699626923, -0.10392877459526062, -0.05710310861468315, 0.02828379161655903, 0.00014285331417340785, 0.03985442593693733, -0.04793623834848404, -0.010329283773899078, -0.07975753396749496, 0.007324984297156334, -0.07074809819459915, -0.07268314808607101, -0.06514959037303925], [-0.06882849335670471, -0.050865206867456436, -0.12585268914699554, -0.10904478281736374, -0.0787876695394516, -0.04519407078623772, -0.0030950210057199, 0.030125591903924942, 0.03570805862545967, -0.058951348066329956, -0.056608445942401886, -0.025756094604730606, -0.01209290698170662, -0.1119103953242302, -0.04657786339521408], [0.05111788585782051, -0.04014500975608826, 0.00981095340102911, -0.07622068375349045, 0.0028500689659267664, 0.04632661119103432, -0.05212860926985741, 0.02087135799229145, 0.005238150712102652, 0.0037297066301107407, -0.016958991065621376, -0.05877821147441864, -0.0018859257688745856, -0.009821975603699684, -0.11806195974349976], [-0.023358283564448357, 0.017540542408823967, 0.026353737339377403, 0.04281621426343918, 0.022959444671869278, -0.017065471038222313, -0.03560546040534973, -0.06034776568412781, -0.022932158783078194, 0.024946041405200958, 0.0071438634768128395, -0.05397586151957512, -0.06259417533874512, -0.12183106690645218, -0.08550132066011429], [-0.002717638621106744, 0.014634111896157265, -0.008670766837894917, 0.015653274953365326, 0.042862419039011, -0.009039624594151974, -0.03512938693165779, 0.005936443340033293, 0.03254494071006775, -0.06943169981241226, -0.0038982208352535963, -0.02762363664805889, -0.14183631539344788, -0.007682830095291138, -0.07922697812318802], [0.00035308999940752983, -0.032202813774347305, 0.04277036339044571, 0.0433838851749897, 0.024369020015001297, -0.01017349399626255, -0.015319274738430977, -0.031443413347005844, -0.07912995666265488, -0.0026692491956055164, -0.09991307556629181, -0.11423667520284653, -0.0922776311635971, -0.021252408623695374, -0.06556128710508347], [0.008097953163087368, -0.06660166382789612, 0.006076162215322256, -0.01246049627661705, -0.02370109222829342, -0.01997896283864975, -0.024380996823310852, -0.03602058067917824, -0.0408516600728035, -0.09016567468643188, -0.15007932484149933, -0.13521504402160645, -0.14014969766139984, -0.05177535116672516, -0.16277897357940674]]], [[[-0.002116135088726878, 0.04388268664479256, 0.0419086329638958, -0.05078237131237984, -0.035252802073955536, -0.06286820769309998, 0.02465575747191906, -0.11776880919933319, -0.18157482147216797, -0.19832627475261688, -0.2881949245929718, -0.18709620833396912, -0.13393989205360413, -0.0914255902171135, -0.09606727957725525], [-0.05045976862311363, 0.0060272510163486, -0.07670818269252777, -0.13377836346626282, -0.09407646209001541, -0.023372041061520576, -0.11061820387840271, -0.10194995254278183, -0.12590351700782776, -0.15490417182445526, -0.15810729563236237, -0.100154347717762, -0.12684418261051178, -0.05452600494027138, -0.026826240122318268], [-0.04604683816432953, -0.09551280736923218, -0.09825959801673889, -0.17051903903484344, -0.1059379056096077, -0.05800038203597069, -0.13651742041110992, -0.10829358547925949, -0.1992768943309784, -0.11723510175943375, -0.16939383745193481, -0.09909024089574814, -0.05316757783293724, -0.10998782515525818, 0.04803125932812691], [-0.07633497565984726, -0.07196605950593948, -0.13669967651367188, -0.11908219009637833, -0.014048644341528416, -0.0981394499540329, -0.09574023634195328, -0.13718436658382416, -0.12529565393924713, -0.022922448813915253, -0.12340661138296127, -0.1678483784198761, -0.09718872606754303, -0.09366263449192047, 0.008200121112167835], [-0.0708145722746849, -0.19194148480892181, -0.09285075962543488, -0.0709061548113823, -0.03687049075961113, -0.05542370676994324, -0.12936338782310486, -0.16285860538482666, -0.14905330538749695, -0.029256124049425125, -0.19468939304351807, -0.10505567491054535, -0.025382548570632935, -0.063335120677948, -0.020177466794848442], [-0.1841849982738495, -0.07212134450674057, -0.0845651924610138, -0.07281836867332458, -0.01685178279876709, -0.10022886097431183, -0.07874935120344162, -0.1612171083688736, -0.15062279999256134, -0.025019753724336624, -0.1864447444677353, -0.029295988380908966, 0.017652001231908798, 0.01500020083039999, 0.10805178433656693], [-0.08834227174520493, -0.058812279254198074, -0.03739873319864273, -0.053406886756420135, -0.09719742089509964, -0.13778440654277802, -0.03276744484901428, -0.02243182249367237, -0.047575436532497406, 0.015663865953683853, -0.10666842013597488, -0.01458694413304329, -0.06581231951713562, 0.008925937116146088, 0.11901181936264038], [-0.14435258507728577, -0.11186566203832626, -0.03606078773736954, 0.022166576236486435, 0.0017722127959132195, -0.006047025788575411, 0.05417203903198242, -0.08215023577213287, -0.09145656228065491, 0.008365117013454437, -0.10278602689504623, -0.05356091633439064, -0.07401758432388306, 0.028379466384649277, 0.06322821229696274], [-0.11148860305547714, -0.03707841411232948, -0.04192100092768669, -0.027655553072690964, 0.014180649071931839, -0.004583828151226044, 0.052264124155044556, 0.05601859837770462, -0.0702582597732544, 0.009584338404238224, -0.12324007600545883, -0.06509700417518616, -0.08919139951467514, 0.06311523169279099, 0.13572369515895844], [-0.12386958301067352, -0.16212131083011627, -0.1158524826169014, 0.003807544009760022, -0.014359832741320133, 0.04146646335721016, 0.09919367730617523, -0.04444785788655281, -0.18157096207141876, -0.061563920229673386, -0.22754289209842682, -0.13966481387615204, 0.008896961808204651, 0.07785751670598984, 0.10354284197092056], [-0.2171119898557663, -0.07736516743898392, -0.09589553624391556, 0.06785248965024948, 0.08038171380758286, -0.061295244842767715, -0.014977862127125263, -0.08488644659519196, -0.21377496421337128, -0.0955786406993866, -0.21987566351890564, -0.18288733065128326, 0.014983096159994602, -0.023259520530700684, 0.039920367300510406], [-0.09606800973415375, -0.1259736269712448, -0.07065542787313461, 0.019333502277731895, 0.026358570903539658, 0.026283947750926018, -0.07809815555810928, -0.09007589519023895, -0.2930229902267456, -0.224346324801445, -0.2942129075527191, -0.11409928649663925, -0.07832678407430649, 0.025324854999780655, 0.03805045783519745], [-0.16770416498184204, -0.13141997158527374, -0.09713079035282135, -0.040494196116924286, 0.019525639712810516, -0.05756719037890434, -0.17605887353420258, -0.2272423803806305, -0.32415449619293213, -0.24095110595226288, -0.2211524099111557, -0.21164581179618835, -0.050492022186517715, 0.05414769798517227, 0.031833142042160034], [-0.1635427474975586, -0.10555127263069153, -0.05543307587504387, -0.11533083766698837, -0.15894141793251038, -0.25854286551475525, -0.3052353858947754, -0.37119776010513306, -0.2881230413913727, -0.1536089926958084, -0.19289004802703857, -0.07981660217046738, -0.0212252177298069, -0.07450588792562485, -0.009211788885295391], [-0.047914013266563416, -0.037500862032175064, 0.06920326501131058, -0.001545150764286518, -0.11461806297302246, -0.26763448119163513, -0.4013253152370453, -0.4418717324733734, -0.4119848310947418, -0.16173383593559265, -0.16285039484500885, -0.14691513776779175, -0.030223455280065536, -0.03248666599392891, 0.07966282963752747]]], [[[-0.14214709401130676, -0.22455599904060364, -0.22192491590976715, -0.08554492145776749, -0.059657707810401917, -0.06656847894191742, 0.0028090879786759615, 0.0924190804362297, 0.01901763677597046, 0.11831797659397125, 0.13155832886695862, 0.014645365998148918, 0.0031160046346485615, -0.028038542717695236, -0.14153017103672028], [-0.16089996695518494, -0.14004221558570862, -0.18810907006263733, -0.12678860127925873, -0.022644104436039925, -0.0920179933309555, 0.010457228869199753, 0.08446705341339111, 0.11454910039901733, 0.04872450977563858, -0.022320663556456566, 0.02698504365980625, -0.023843593895435333, -0.06542865186929703, -0.14781402051448822], [-0.0997203066945076, -0.1636875867843628, -0.14230342209339142, -0.1112041026353836, -0.09283905476331711, 0.038081809878349304, 0.054351139813661575, -0.021522976458072662, 0.09361835569143295, 0.09966427832841873, 0.06295546144247055, -0.016215598210692406, -0.030964404344558716, -0.0806598961353302, -0.15876543521881104], [-0.09247954934835434, -0.06579358875751495, -0.07425693422555923, -0.023570997640490532, 0.0006069289520382881, 0.01392329391092062, 0.08482197672128677, 0.044812221080064774, -0.002025182358920574, 0.1003745049238205, -0.03957904130220413, -0.03905659541487694, -0.14914515614509583, -0.0849594697356224, -0.13836774230003357], [-0.07358857244253159, -0.0947742685675621, -0.09147047996520996, -0.007371642626821995, 0.009511026553809643, 0.08476060628890991, 0.0841853991150856, 0.06186888366937637, 0.038154710084199905, 0.062225062400102615, 0.0171856340020895, -0.12144295871257782, -0.09512998163700104, -0.17937467992305756, -0.12883952260017395], [-0.006298390217125416, -0.03697338327765465, 0.013817164115607738, 0.046011216938495636, 0.05503150448203087, 0.08799243718385696, 0.09857016801834106, 0.12554189562797546, 0.07040518522262573, -0.015467101708054543, -0.028402898460626602, -0.04526032879948616, -0.13163495063781738, -0.11102385818958282, -0.10883944481611252], [0.03363342583179474, 0.044291362166404724, 0.10441593825817108, 0.03484339267015457, 0.006909254472702742, 0.13206569850444794, 0.12182290107011795, 0.01865815371274948, 0.007039537653326988, -0.07130755484104156, 0.004942566622048616, -0.1282614916563034, -0.12480898201465607, -0.17891302704811096, -0.0479845367372036], [0.026849893853068352, 0.10484613478183746, 0.006092326249927282, 0.1337488442659378, 0.06553039699792862, 0.07362549006938934, 0.04696496203541756, 0.06566920131444931, 0.06101592257618904, 0.004220714792609215, -0.11729968339204788, -0.10571818798780441, -0.11672139167785645, -0.15564607083797455, 0.02755357138812542], [0.07973858714103699, 0.035961542278528214, 0.11607144773006439, 0.11209327727556229, 0.011371432803571224, 0.019871868193149567, 0.027206681668758392, -0.03994104638695717, -0.011540406383574009, -0.08460943400859833, -0.07458788901567459, -0.1459561139345169, -0.18286998569965363, -0.04394081234931946, -0.056803032755851746], [0.040029533207416534, 0.000506318174302578, -0.018828973174095154, 0.10141004621982574, -0.022647567093372345, 0.08399969339370728, -0.06615951657295227, -0.04243571311235428, -0.02312658727169037, -0.059705641120672226, -0.16234850883483887, -0.1483028382062912, -0.05604064092040062, -0.12261462211608887, 0.0009912491077557206], [-0.060724128037691116, 0.007625863887369633, 0.049833692610263824, 0.042008861899375916, -0.01940242573618889, 0.009687195532023907, -0.056130051612854004, -0.11380214989185333, -0.10103713721036911, -0.17354319989681244, -0.20025363564491272, -0.11085978150367737, -0.12525144219398499, -0.04792694374918938, -0.04812402278184891], [-0.041984859853982925, -0.03529197722673416, -0.03546246513724327, -0.05656495317816734, -0.029189452528953552, -0.13940417766571045, -0.11190929263830185, -0.08689666539430618, -0.07492073625326157, -0.1385282725095749, -0.18650086224079132, -0.10094209760427475, -0.07639875262975693, -0.09014974534511566, -0.027072422206401825], [-0.08278548717498779, -0.07501047849655151, -0.1591792106628418, -0.16425298154354095, -0.06188945844769478, -0.10825503617525101, -0.15831661224365234, -0.19164004921913147, -0.13389375805854797, -0.16739679872989655, -0.04066140577197075, -0.0014942671405151486, -0.06903192400932312, -0.016379162669181824, -0.006626380141824484], [-0.10615790635347366, -0.19863539934158325, -0.1646110713481903, -0.22278082370758057, -0.2252882868051529, -0.20705297589302063, -0.18576204776763916, -0.10754013806581497, -0.2049175500869751, -0.1235247328877449, -0.07534556090831757, 0.029522839933633804, 0.016265682876110077, 0.021935749799013138, -0.025942252948880196], [-0.13648051023483276, -0.15406081080436707, -0.24325311183929443, -0.1375621259212494, -0.1708173155784607, -0.18565405905246735, -0.13005390763282776, -0.08511829376220703, -0.057797953486442566, -0.07783196121454239, 0.02469133399426937, -0.028517864644527435, -0.06341194361448288, -0.001418180763721466, 0.02967437170445919]]], [[[-0.07485642284154892, -0.11005835235118866, -0.11197873204946518, 0.03340689092874527, 0.05710512772202492, 0.06647773832082748, 0.02533149905502796, -0.0008337438339367509, 0.0545533113181591, -0.015537233091890812, -0.08674036711454391, -0.031099041923880577, 0.040571726858615875, 0.05167883634567261, 0.012747230939567089], [-0.006242789328098297, -0.0534726120531559, -0.03765781968832016, -0.035728320479393005, -0.03320051357150078, 0.0566626638174057, 0.004925938323140144, 0.061658311635255814, -0.02409207448363304, -0.03584136441349983, -0.014331619255244732, 0.012286405079066753, 0.04565522074699402, 0.05143709480762482, -0.0027933313976973295], [0.002735515357926488, 0.042136695235967636, -0.01540668960660696, 0.07368079572916031, 0.07669741660356522, 0.0444471575319767, -0.05801879242062569, -0.026740310713648796, -0.07510756701231003, -0.11683263629674911, -0.07994837313890457, -0.010275410488247871, -0.03715954348444939, -0.0356549508869648, 0.012382593005895615], [-0.04418740049004555, 0.0658564418554306, 0.008938008919358253, 0.0466228686273098, -0.011519601568579674, -0.034421440213918686, -0.11761628091335297, -0.1267312914133072, -0.18168893456459045, -0.09221113473176956, -0.10245681554079056, -0.03478476405143738, -0.07951640337705612, 0.04788922518491745, -0.002728171180933714], [0.04999317601323128, -0.0019763531163334846, 0.05146314948797226, 0.06325484067201614, -0.07451941072940826, -0.028881974518299103, -0.14144344627857208, -0.2188117653131485, -0.1903848648071289, -0.14606830477714539, -0.13842684030532837, -0.10062971711158752, -0.009035776369273663, -0.027337977662682533, 0.0388823002576828], [0.08416051417589188, -0.004660042002797127, -0.026279227808117867, -0.11128263175487518, -0.09077902883291245, -0.15563097596168518, -0.2515914738178253, -0.18833690881729126, -0.12861663103103638, -0.10461144149303436, -0.04399856552481651, 