{"1": {"scales_p1": [1.2587409019470215, 0.9196369051933289, 0.7850735783576965, 1.1482475996017456, 1.0993072986602783, 1.431915044784546, 1.118778109550476, 0.8192933797836304, 0.7655217051506042, 0.9220298528671265, 0.9857457876205444, 0.8589834570884705, 1.0032482147216797, 1.261553406715393, 0.7893071174621582, 1.549756407737732, 1.2013832330703735, 1.075448989868164, 0.8674778342247009, 1.167302131652832], "scales_p2": [0.8865001797676086, 1.0168359279632568, 0.7338688373565674, 0.850321888923645, 0.7129431366920471, 0.9797499775886536, 0.8483598828315735, 0.7452430725097656, 0.7984699606895447, 0.7126916646957397, 0.8009493350982666, 0.826492190361023, 0.8853845000267029, 1.0, 0.7915716767311096, 0.7528514862060547, 0.7901878952980042, 0.8230754733085632, 0.8624931573867798, 0.8677385449409485, 0.9040835499763489, 0.786024272441864, 0.7661513686180115, 1.0, 0.9578424692153931, 1.0066161155700684, 0.7834071516990662, 0.8371819853782654, 0.8436622619628906, 0.9705800414085388, 0.9667928814888, 1.005990982055664, 0.8538819551467896, 0.7500191926956177, 0.8700647950172424, 0.8728904724121094, 0.9109475016593933, 0.8074644804000854, 0.7934167981147766, 0.932018518447876, 0.8608190417289734, 0.9256703853607178, 0.9212625026702881, 0.9036382436752319, 0.7993288636207581, 1.0, 0.8359926342964172, 0.7396348714828491, 0.9624333381652832, 1.0621354579925537], "conv_weights": [[[[0.08870666474103928, 0.18648625910282135, -0.3935597240924835, -0.102324940264225, -0.04475878179073334], [-0.011362370103597641, 0.16321182250976562, 0.13833977282047272, -0.16317118704319, -0.23852844536304474], [-0.013914779759943485, 0.035233788192272186, 0.34407076239585876, -0.19468045234680176, -0.19558008015155792], [-0.12018745392560959, 0.12105998396873474, 0.3390933871269226, 0.1292743682861328, -0.06047443673014641], [-0.11432281881570816, -0.3604602515697479, -0.06967984139919281, 0.1967565268278122, 0.1535101979970932]]], [[[0.023447684943675995, 0.23408867418766022, 0.1442277580499649, -0.4160142242908478, -0.04467230290174484], [-0.35573381185531616, 0.10445839911699295, 0.16090938448905945, 0.20299585163593292, 0.11605136841535568], [-0.19812005758285522, -0.1249305009841919, -0.3204328119754791, 0.026983048766851425, -0.18665574491024017], [-0.09347269684076309, -0.015971269458532333, 0.06289223581552505, 0.023559734225273132, 0.10475967079401016], [0.13960176706314087, 0.1634753793478012, -0.2025127112865448, 0.09769129008054733, -0.2613494396209717]]], [[[-0.18385542929172516, -0.16970551013946533, -0.08576943725347519, 0.018811021000146866, -0.1304538995027542], [0.17800754308700562, 0.057501982897520065, 0.021899817511439323, 0.07123249024152756, -0.27474847435951233], [-0.14622433483600616, -0.18442684412002563, 0.022326108068227768, -0.11746469885110855, -0.15656790137290955], [0.1812390834093094, -0.04839682951569557, -0.2193067967891693, -0.08275455236434937, 0.10879506915807724], [0.33578553795814514, 0.26386758685112, 0.2832832336425781, 0.3258403241634369, -0.09608177840709686]]], [[[-0.0031787080224603415, -0.057985495775938034, -0.1828686147928238, 0.17867319285869598, -0.011163911782205105], [0.12140601128339767, 0.025288788601756096, -0.34593871235847473, 0.1689826399087906, 0.14507737755775452], [-0.22308902442455292, -0.0933389812707901, -0.022653017193078995, -0.08987019211053848, 0.23950783908367157], [0.09115570038557053, -0.11939989775419235, -0.03387804329395294, -0.008897123858332634, 0.2774433493614197], [0.023233648389577866, -0.19166412949562073, -0.3116912841796875, -0.17461815476417542, 0.10104619711637497]]], [[[0.07770588994026184, 0.06847195327281952, 0.22216388583183289, -0.10736101865768433, -0.2089432030916214], [-0.018323266878724098, 0.1809598058462143, 0.10712269693613052, -0.009576079435646534, 0.020177137106657028], [0.1740339696407318, -0.10578232258558273, 0.04139607772231102, 0.108318030834198, -0.17224659025669098], [-0.05386802554130554, 0.22871284186840057, 0.051946971565485, -0.19254712760448456, -0.17861567437648773], [-0.009612961672246456, 0.12997499108314514, -0.11065980792045593, -0.4870154857635498, -0.08704564720392227]]], [[[-0.1422034651041031, 0.09260892868041992, -0.14676377177238464, -0.20777718722820282, -0.19953343272209167], [0.045487310737371445, -0.06746223568916321, 0.2901102900505066, 0.24610142409801483, 0.3314179480075836], [0.22918295860290527, 0.20993228256702423, 0.4447214901447296, 0.36832401156425476, -0.05159471929073334], [-0.10868111997842789, 0.030372140929102898, -0.1872824728488922, 0.10687298327684402, -0.12963496148586273], [-0.34942522644996643, -0.38801583647727966, -0.6078116297721863, -0.2503601312637329, -0.2557485103607178]]], [[[-0.17337949573993683, -0.04332369193434715, -0.08018380403518677, 0.05326377972960472, -0.26457491517066956], [-0.15638568997383118, 0.2708190083503723, 0.1908062845468521, 0.1364814192056656, 0.21773308515548706], [0.004605531692504883, 0.19118434190750122, -0.24845851957798004, -0.07694491744041443, 0.20235054194927216], [-0.040949128568172455, 0.1160077378153801, -0.20234650373458862, -0.2175467312335968, 0.24178168177604675], [0.1135907992720604, 0.14293040335178375, -0.046181175857782364, -0.023911217227578163, 0.1223570704460144]]], [[[0.21718557178974152, 0.17568755149841309, 0.030020421370863914, 0.1042296513915062, 0.007579617202281952], [-0.19555452466011047, -0.04684597626328468, 0.09079747647047043, -0.09699887782335281, 0.00640509370714426], [0.024518519639968872, 0.04704966023564339, 0.27039921283721924, -0.007090805564075708, -0.16014276444911957], [-0.06339127570390701, -0.3297122120857239, 0.19324959814548492, 0.06435166299343109, -0.16102556884288788], [-0.47863614559173584, -0.18387380242347717, -0.08166434615850449, 0.10223639011383057, -0.35956355929374695]]], [[[0.15495629608631134, -0.2842024862766266, -0.36696115136146545, -0.429220974445343, 0.15408678352832794], [0.13689783215522766, 0.034081198275089264, -0.1796540766954422, -0.2480272352695465, -0.04557238519191742], [-0.2533167004585266, -0.22995856404304504, -0.3479633927345276, -0.0004156176873948425, 0.11409929394721985], [-0.5172797441482544, -0.13862484693527222, -0.14569209516048431, 0.10156824439764023, 0.11730395257472992], [0.08572502434253693, 0.22654743492603302, -0.2776235342025757, 0.037574008107185364, 0.2285207211971283]]], [[[-0.01628357358276844, 0.10706819593906403, -0.6547387838363647, -0.22025233507156372, 0.14502304792404175], [0.14051704108715057, 0.037984833121299744, -0.10522618144750595, -0.1467454582452774, -0.16995756328105927], [-0.049241162836551666, 0.2557428181171417, 0.16705083847045898, 0.3330754041671753, 0.19066688418388367], [-0.03911290690302849, -0.08720919489860535, -0.2817290425300598, -0.1464950293302536, -0.12972302734851837], [-0.023349476978182793, -0.12931276857852936, 0.05097220465540886, -0.15616001188755035, -0.15344586968421936]]], [[[-0.0037019478622823954, 0.060333624482154846, 0.15506790578365326, -0.10170699656009674, -0.2114717811346054], [-0.2602297365665436, -0.26248639822006226, 0.1385105401277542, -0.003936258610337973, -0.2653757929801941], [0.04740713909268379, 0.20670564472675323, -0.08504114300012589, 0.21610894799232483, 0.025467485189437866], [0.1471981257200241, 0.16631385684013367, -0.15040095150470734, -0.2019217610359192, 0.24053385853767395], [0.008894032798707485, -0.09079098701477051, 0.01834704354405403, -0.12003462761640549, 0.21306166052818298]]], [[[-0.3953438401222229, 0.1159612312912941, 0.061597272753715515, -0.010711653158068657, 0.05619845166802406], [0.06969861686229706, 0.12254564464092255, -0.18166442215442657, 0.005140116438269615, 0.15107093751430511], [0.08367598056793213, 0.0763828232884407, 0.03868434578180313, -0.05783158540725708, 0.09275142103433609], [-0.016335906460881233, 0.038505662232637405, 0.0748860239982605, -0.11689139902591705, 0.13287730515003204], [-0.020856620743870735, -0.21962809562683105, 0.16681025922298431, 0.16511701047420502, -0.2708967328071594]]], [[[0.17867372930049896, -0.09003307670354843, 0.1295325756072998, 0.2814808785915375, 0.124452143907547], [0.03314921632409096, -0.05286755785346031, -0.19389256834983826, -0.04981704428792, 0.3513253629207611], [-0.1460224837064743, -0.36916565895080566, -0.2568529546260834, -0.18195758759975433, -0.05213194712996483], [-0.17044560611248016, -0.1896832287311554, -0.3539355397224426, 0.09934809803962708, 0.11854461580514908], [0.19971878826618195, 0.07422059029340744, 0.09660714119672775, 0.21921159327030182, 0.17315459251403809]]], [[[-0.35390183329582214, -0.1456606686115265, 0.27887624502182007, 0.20477613806724548, -0.011372718960046768], [-0.21523484587669373, 0.26099616289138794, 0.32474181056022644, -0.3835151791572571, -0.2076176404953003], [-0.3092910051345825, 0.15359796583652496, -0.12485681474208832, -0.36057916283607483, 0.003358792280778289], [0.047861192375421524, 0.265116810798645, -0.061873339116573334, -0.10269278287887573, -0.14961130917072296], [0.266940176486969, 0.0775550827383995, -0.31245163083076477, -0.15865448117256165, 0.18721354007720947]]], [[[-0.08191351592540741, 0.006925418507307768, -0.15056219696998596, -0.35964810848236084, -0.2600449323654175], [-0.016745196655392647, -0.01575068011879921, -0.12378866225481033, -0.007807960733771324, -0.3457760810852051], [0.010870642960071564, -0.1388019174337387, 0.15856845676898956, 0.21041150391101837, 0.03417905792593956], [-0.04309885576367378, 0.05765167623758316, 0.064610555768013, 0.05121460184454918, 0.06419535726308823], [0.1991896778345108, 0.043111857026815414, -0.0103245098143816, 0.15554583072662354, 0.22599536180496216]]], [[[-0.21278175711631775, -0.16952303051948547, 0.44133034348487854, 0.07956001162528992, -0.0325310081243515], [0.03358373045921326, 0.39667773246765137, 0.02853749319911003, -0.410815566778183, -0.07368618994951248], [0.2639663815498352, 0.16994085907936096, -0.4387248158454895, -0.3011437952518463, -0.15051135420799255], [0.04396240785717964, -0.4792744815349579, -0.0971100777387619, 0.11937573552131653, 0.1808234453201294], [-0.2578544616699219, -0.1533740758895874, -0.02660463936626911, 0.3526822030544281, 0.0036063245497643948]]], [[[0.2707858085632324, -0.07306521385908127, -0.31925493478775024, -0.0938396230340004, 0.036911506205797195], [0.19187591969966888, -0.08176213502883911, -0.2991173267364502, -0.24467186629772186, -0.009801562875509262], [0.27789583802223206, -0.21093371510505676, -0.20802950859069824, -0.008044582791626453, -0.10679163038730621], [0.2812862694263458, -0.2805713415145874, -0.20551177859306335, 0.043160710483789444, 0.027289267629384995], [0.31126630306243896, -0.13390198349952698, -0.20338492095470428, -0.1458146572113037, 0.0003911594394594431]]], [[[-0.15432904660701752, -0.05048808455467224, -0.05072318762540817, 0.22631238400936127, -0.3886415958404541], [-0.3196548819541931, -0.41350680589675903, 0.10311663895845413, 0.3839956820011139, 0.024091746658086777], [-0.1766805499792099, -0.37840673327445984, -0.05918467417359352, 0.1452319175004959, 0.07489001750946045], [0.33867087960243225, -0.05605281889438629, -0.3476141393184662, -0.028603123500943184, -0.07295753061771393], [0.370620459318161, 0.008512703701853752, -0.19268572330474854, -0.04712342098355293, 0.2371567338705063]]], [[[0.27240633964538574, 0.23634976148605347, 0.03209809586405754, -0.08216620236635208, 0.20520028471946716], [0.05294187366962433, -0.12095844745635986, -0.27450233697891235, -0.5694292187690735, -0.30601611733436584], [-0.6212630867958069, -1.443434715270996, -1.4897301197052002, -1.2084699869155884, -0.7225850820541382], [-0.3553583025932312, -0.1270895004272461, -0.16272225975990295, -0.16682898998260498, -0.23772019147872925], [0.2218485027551651, 0.20082713663578033, 0.17434261739253998, 0.23837265372276306, 0.033596429973840714]]], [[[0.05236613005399704, -0.3734443783760071, -0.41731518507003784, 0.06012076884508133, 0.05092428997159004], [-0.2930203080177307, -0.4252761900424957, 0.08945326507091522, 0.2513732612133026, 0.018481725826859474], [-0.40760892629623413, -0.07337390631437302, 0.3258610665798187, 0.17351219058036804, -0.10431671887636185], [-0.11607163399457932, 0.35442444682121277, 0.2733387351036072, 0.04708362743258476, 0.0671602338552475], [0.1828003078699112, 0.2693050801753998, -0.0556640550494194, -0.22843483090400696, -0.17845648527145386]]]], "accuracies": 0.962}, "2": {"scales_p1": [0.4389937222003937, 0.6033115386962891, 0.4332718849182129, 1.6487857103347778, 0.6351839303970337, 0.4104977548122406, 0.8654708862304688, 0.8384842276573181, 0.5909019708633423, 0.6263388395309448, 0.658370852470398, 1.0, 0.43134644627571106, 0.4584903419017792, 1.8130695819854736, 1.8351629972457886, 1.2335261106491089, 0.6474984288215637, 0.672767162322998, 1.0], "scales_p2": [1.1533448696136475, 1.2538421154022217, 0.72004234790802, 0.9752069711685181, 0.8784810304641724, 0.8822281360626221, 1.0007386207580566, 0.8576645851135254, 1.0011082887649536, 0.8749606013298035, 1.1883703470230103, 1.2687387466430664, 1.0377057790756226, 1.1510294675827026, 1.0176440477371216, 1.0, 0.992853581905365, 0.703665554523468, 0.8862485289573669, 1.2380143404006958, 1.3886686563491821, 0.9965845346450806, 0.8376362323760986, 0.9962635040283203, 1.0368592739105225, 0.9250778555870056, 1.5044469833374023, 0.7180204391479492, 0.9547510147094727, 1.0, 0.8135125041007996, 0.8076777458190918, 1.051603078842163, 0.9735066890716553, 0.7563047409057617, 1.0764431953430176, 0.45483240485191345, 1.2874363660812378, 1.0, 1.0, 1.075644850730896, 1.0, 1.0919138193130493, 0.8646687269210815, 1.1527197360992432, 1.0, 0.8309573531150818, 0.717698872089386, 0.9350622892379761, 1.2770605087280273], "conv_weights": [[[[0.12708471715450287, 0.15462499856948853, 0.03184711933135986, -0.21955746412277222, -0.017542047426104546], [-0.2501767873764038, -0.18059122562408447, 0.09848664700984955, -0.004121963866055012, 0.09234076738357544], [-0.2363048940896988, -0.0640769898891449, 0.1271829903125763, 0.19051246345043182, 0.21462488174438477], [-0.04108324646949768, 0.05775171145796776, 0.07089253515005112, 0.28081566095352173, -0.017207510769367218], [0.04869004711508751, 0.014672665856778622, 0.07672983407974243, 0.231496661901474, 0.1714801788330078]]], [[[-0.19365917146205902, -0.1298670619726181, 0.08745568990707397, -0.09131789952516556, 0.053320810198783875], [0.0028427306097000837, -0.1296134889125824, 0.020722389221191406, 0.18629616498947144, 0.14723049104213715], [-0.023966411128640175, 0.10772857815027237, 0.321408748626709, 0.18407028913497925, -0.16844280064105988], [0.028277136385440826, -0.05669555440545082, -0.023007478564977646, 0.27110394835472107, -0.15922313928604126], [-0.041361648589372635, 0.15815863013267517, 0.04040830582380295, 0.18159402906894684, 0.17640812695026398]]], [[[-0.08995671570301056, 0.027163388207554817, 0.17611990869045258, 0.22354790568351746, -0.17293167114257812], [0.06263725459575653, 0.21154068410396576, 0.17010153830051422, 0.14648014307022095, 0.08253372460603714], [-0.12816490232944489, 0.1852388083934784, 0.18577316403388977, -0.07950764894485474, -0.12392730265855789], [-0.14566516876220703, 0.1776564121246338, 0.22292453050613403, 0.1825222373008728, -0.14984595775604248], [-0.019051149487495422, -0.09595008939504623, -0.020876538008451462, -0.20431016385555267, -0.16681833565235138]]], [[[0.4594658315181732, 0.4261891543865204, 0.4479089081287384, 0.28848040103912354, 0.33264967799186707], [0.24334684014320374, 0.4466705918312073, 0.2641197443008423, 0.2996867895126343, 0.07845155894756317], [-0.04721404239535332, 0.15008755028247833, 0.20550142228603363, 0.18754108250141144, -0.1656486988067627], [-0.3476088047027588, -0.2877093553543091, -0.4085097908973694, -0.23433026671409607, -0.2028626948595047], [-0.7642871737480164, -0.9789866805076599, -0.9824264049530029, -0.9310197830200195, -0.670072078704834]]], [[[-0.09377378225326538, 0.08188460022211075, -0.01833142526447773, -0.3490425646305084, -0.41130369901657104], [0.22016915678977966, 0.2222679853439331, 0.007701436057686806, -0.3693026304244995, -0.19385910034179688], [-0.035278063267469406, 0.36300715804100037, -0.013523220084607601, -0.2373630404472351, -0.20399145781993866], [0.28020280599594116, 0.10988452285528183, 0.15287365019321442, -0.1783827841281891, -0.4374896287918091], [0.39345329999923706, 0.22229944169521332, 0.395282506942749, 0.0944303572177887, -0.22294168174266815]]], [[[-0.16182579100131989, 0.0909310132265091, -0.08429374545812607, -0.007892925292253494, -0.16167747974395752], [-0.13370239734649658, -0.031167196109890938, 0.09242909401655197, 0.09383431822061539, -0.2036810666322708], [-0.042794402688741684, 0.1539631485939026, 0.0714733824133873, 0.07527278363704681, -0.20689117908477783], [0.04466932639479637, 0.1718606799840927, 0.1271047294139862, 0.25293514132499695, -0.12081450968980789], [-0.005561269354075193, 0.11479876935482025, 0.03260046988725662, 0.13719479739665985, -0.12063756585121155]]], [[[-0.2900940775871277, -0.18493330478668213, 0.19247658550739288, 0.22773706912994385, 0.1035347580909729], [-0.25122395157814026, 0.020092537626624107, 0.09749144315719604, 0.1726282835006714, -0.16755443811416626], [0.13157527148723602, 0.09108329564332962, 0.05581815913319588, 0.2841675579547882, -0.18199759721755981], [0.17585444450378418, -0.013727203011512756, 0.20333407819271088, 0.2244034707546234, -0.22149284183979034], [-0.007049709092825651, 0.18923960626125336, -0.06918182969093323, -0.1615012288093567, -0.3846419155597687]]], [[[0.012828665785491467, -0.08639100939035416, -0.041372429579496384, -0.06880269199609756, -0.3760196268558502], [0.05191829055547714, -0.10157181322574615, -0.338191956281662, -0.26902663707733154, -0.7301308512687683], [-0.3279323875904083, -0.3931906521320343, -0.5330408215522766, -0.5547019839286804, -0.4465615749359131], [-0.48085618019104004, -0.31401798129081726, -0.6774665117263794, -0.4337276816368103, -0.45215141773223877], [-0.2805342674255371, -0.42463383078575134, -0.7464405298233032, -0.29841846227645874, -0.3447757959365845]]], [[[-0.6143657565116882, -0.5936379432678223, -0.5692236423492432, -0.28946030139923096, -0.10607718676328659], [-0.7953243851661682, -0.8000954389572144, -0.700284481048584, -0.5041201710700989, -0.19113798439502716], [-0.7333531379699707, -0.7918043732643127, -0.5993027091026306, -0.39689743518829346, -0.501078724861145], [-0.6296301484107971, -0.7102278470993042, -0.49125489592552185, -0.45884373784065247, -0.3956061005592346], [-0.31718897819519043, -0.4111708998680115, -0.443680077791214, -0.5162268280982971, -0.46509337425231934]]], [[[-0.06111646071076393, -0.16367436945438385, -0.1879197657108307, -0.280815988779068, -0.6469234228134155], [-0.38878369331359863, -0.2971985638141632, -0.5935347080230713, -0.8048286437988281, -0.8522942066192627], [-0.6458113193511963, -0.5954423546791077, -0.49896669387817383, -0.4936688244342804, -0.7442705631256104], [-0.8761564493179321, -0.8801214694976807, -0.9027286767959595, -0.5085828304290771, -0.496552437543869], [-0.7929549217224121, -1.0560693740844727, -0.9353654980659485, -0.43175631761550903, -0.09300776571035385]]], [[[0.08361256867647171, 0.054768238216638565, -0.09391890466213226, -0.10958642512559891, -0.08652979880571365], [-0.010178540833294392, 0.06088530644774437, 0.14807410538196564, 0.10381637513637543, -0.11450886726379395], [0.13439735770225525, 0.10385844856500626, -0.049589402973651886, -0.10804932564496994, 0.0493350476026535], [-0.2042061984539032, -0.0028683629352599382, -0.14307886362075806, 0.09345446527004242, 0.17508070170879364], [-0.24552524089813232, -0.027578940615057945, 0.04370721057057381, -0.1552141159772873, -0.1400810033082962]]], [[[-0.13594436645507812, -0.15109823644161224, 0.037883926182985306, -0.17169950902462006, 0.034197308123111725], [-0.1836419552564621, 0.1053767204284668, -0.03659949451684952, -0.06084427982568741, 0.03494555875658989], [-0.09836757183074951, -0.11854708194732666, -0.1614038050174713, 0.02976212464272976, 0.07797443866729736], [0.05879776552319527, 0.02747170999646187, -0.15466459095478058, -0.18855932354927063, -0.012474465183913708], [-0.10242598503828049, 0.1258094757795334, -0.16082699596881866, 0.15751028060913086, -0.05026431009173393]]], [[[-0.1458945870399475, 0.009106496348977089, 0.10450678318738937, 0.019615355879068375, -0.03926181420683861], [-0.007798281963914633, -0.11771737784147263, -0.047705717384815216, -0.11822309345006943, -0.03840489685535431], [-0.2048749029636383, 0.14844264090061188, -0.06108347326517105, 0.1295406073331833, 0.11973100155591965], [0.1256769746541977, 0.15865950286388397, 0.12749187648296356, 0.2073814421892166, -0.20282511413097382], [0.07829844951629639, -0.14023268222808838, 0.2533428370952606, -0.014379139058291912, -0.06834681332111359]]], [[[0.21412517130374908, 0.13876909017562866, -0.14077980816364288, -0.18404634296894073, -0.031221110373735428], [-0.029236670583486557, -0.14472879469394684, 0.06593596190214157, 0.18372298777103424, -0.0261528342962265], [-0.36614376306533813, -0.4016212821006775, -0.13074755668640137, 0.08289887756109238, 0.21348781883716583], [-0.47126510739326477, -0.021207576617598534, 0.02897779271006584, 0.21821463108062744, 0.40719205141067505], [-0.1782202273607254, 0.14040876924991608, -0.08003173023462296, 0.0782947763800621, 0.432317852973938]]], [[[-0.15117713809013367, -0.48735976219177246, -0.5561763644218445, -0.7434267401695251, -0.3272784650325775], [0.004450935870409012, -0.20367825031280518, -0.3712598383426666, -0.5688910484313965, -0.09740539640188217], [0.11397258192300797, -0.2184554487466812, -0.25568830966949463, -0.1963576227426529, -0.049972597509622574], [0.20679010450839996, 0.3816954791545868, 0.21318204700946808, 0.5001350045204163, 0.3572820723056793], [0.20212094485759735, 0.38038361072540283, 0.5055814981460571, 0.668656051158905, 0.66321861743927]]], [[[-0.124347984790802, 0.3228442370891571, 0.2193250060081482, 0.4160504639148712, 0.4608858525753021], [-0.11099061369895935, -0.05240238830447197, 0.22524836659431458, 0.24068818986415863, 0.5628522634506226], [-0.2010100781917572, -0.3574322760105133, -0.22347401082515717, 0.37628498673439026, 0.5958632230758667], [-0.5983971953392029, -0.7106693387031555, -0.42006009817123413, 0.2868000268936157, 0.3390938639640808], [-0.7878605127334595, -0.8608671426773071, -0.701420783996582, -0.22116640210151672, 0.5255947709083557]]], [[[0.47847259044647217, 0.4842018783092499, -0.018637673929333687, -0.3053816556930542, -0.7307435274124146], [0.4211982488632202, 0.3227548599243164, -0.24908259510993958, -0.46108517050743103, -0.4697917699813843], [0.2134324610233307, -0.028211768716573715, -0.5029919743537903, -0.4768720269203186, -0.014968572184443474], [-0.22632110118865967, -0.18433435261249542, -0.6570366024971008, -0.06725417077541351, 0.368474543094635], [-0.5844336748123169, -0.48799577355384827, -0.43428030610084534, -0.06721998006105423, 0.5430188179016113]]], [[[0.07894834131002426, -0.009158690460026264, -0.23720870912075043, 0.06678418070077896, -0.1685696691274643], [-0.013535121455788612, 0.12983372807502747, 0.01669524796307087, 0.1598467379808426, 0.09146654605865479], [-0.12479625642299652, 0.08650125563144684, 0.03741913288831711, -0.1171414703130722, -0.006677471101284027], [0.10444271564483643, -0.02274729125201702, -0.15625177323818207, -0.06297604739665985, 0.1634139120578766], [-0.1198151707649231, 0.18770785629749298, -0.15802574157714844, 0.1819346398115158, 0.04214536398649216]]], [[[-0.13967186212539673, -0.08880448341369629, 0.18568561971187592, 0.12649992108345032, 0.048298124223947525], [0.037769805639982224, -0.012277484871447086, -0.09975941479206085, 0.1251007467508316, -0.118267722427845], [0.12138247489929199, -0.026913968846201897, 0.033113960176706314, 0.19457444548606873, -0.0393703393638134], [0.19592255353927612, 0.2466665655374527, 0.04666373133659363, 0.056241296231746674, -0.26499632000923157], [-0.023002754896879196, -0.05279695987701416, 0.03215255215764046, -0.12160491198301315, -0.06658383458852768]]], [[[0.17338435351848602, 0.11032309383153915, -0.1886526197195053, -0.07012820243835449, -0.03245227411389351], [-0.1664636880159378, 0.0009808301692828536, -0.1814536601305008, -0.031049514189362526, 0.09734024852514267], [0.06022355705499649, -0.15952613949775696, -0.14472341537475586, 0.15223589539527893, -0.12833137810230255], [-0.022361207753419876, -0.006876945495605469, -0.12137937545776367, -0.11306267231702805, -0.13579539954662323], [0.04628477245569229, -0.030922770500183105, 0.17796504497528076, 0.09866175800561905, -0.06331966072320938]]]], "accuracies": 0.9459}, "3": {"scales_p1": [1.0895074605941772, 0.5770007371902466, 2.778424024581909, 3.620148181915283, 1.3906570672988892, 0.7051706910133362, 1.4124042987823486, 1.0, 0.2380419671535492, 0.26350802183151245, 1.0, 0.7806933522224426, 0.33311307430267334, 0.6153090000152588, 0.31526464223861694, 0.5539615154266357, 1.8679828643798828, 2.380007743835449, 0.3638857901096344, 0.6207103729248047], "scales_p2": [2.142984390258789, 1.0, 1.9786187410354614, 1.7236278057098389, 1.6738272905349731, 1.241325855255127, 1.0001217126846313, 1.2311999797821045, 0.833445131778717, 1.7464962005615234, 1.0484721660614014, 1.570167899131775, 1.081251621246338, 0.8612778782844543, 0.7189138531684875, 1.0, 2.0896902084350586, 1.0, 1.3442931175231934, 0.42854616045951843, 1.0754752159118652, 1.1299408674240112, 0.966456413269043, 0.9852019548416138, 1.0, 1.0, 0.7273799777030945, 1.0, 1.0825334787368774, 1.0, 0.9835124611854553, 1.611527442932129, 1.0, 0.7871413230895996, 0.9164182543754578, 1.0765347480773926, 0.9715226888656616, 0.6740332245826721, 2.098992109298706, 1.0, 0.8630695343017578, 0.9689798951148987, 0.8962531685829163, 1.722192645072937, 0.9307765364646912, 1.858193039894104, 1.0, 1.770418643951416, 0.8661240935325623, 1.8458671569824219], "conv_weights": [[[[0.6497288346290588, 0.4365692734718323, -0.00946077797561884, -0.49156925082206726, -1.1890976428985596], [0.3918988108634949, 0.376833975315094, 0.013797881081700325, -0.28996747732162476, -1.003604531288147], [0.23599590361118317, 0.005608181934803724, 0.043132904917001724, -0.5602676272392273, -0.8483833074569702], [-0.4283267855644226, -0.11614891141653061, -0.285970002412796, -0.6809309720993042, -0.5682428479194641], [-1.1232578754425049, -0.9171116948127747, -0.8352305293083191, -0.7679314613342285, -0.30980831384658813]]], [[[-0.26838070154190063, -0.12376146763563156, -0.05691283196210861, -0.02209928072988987, -0.17092907428741455], [-0.2573370635509491, -0.20508955419063568, 0.07796379923820496, -0.06553732603788376, 0.1979953944683075], [0.050742752850055695, -0.015114891342818737, -0.041781242936849594, 0.1762247532606125, 0.23589035868644714], [0.17317397892475128, 0.13795411586761475, 0.07404081523418427, -0.04287870600819588, 0.1517704874277115], [0.29528096318244934, 0.3314461410045624, 0.1520443558692932, -0.08450435847043991, -0.10987593233585358]]], [[[0.8090835213661194, 0.9487564563751221, 0.9247910976409912, 0.9210008382797241, 0.367719441652298], [0.7450075149536133, 0.43876805901527405, 0.6109632253646851, 0.31228727102279663, 0.19549013674259186], [0.1612585037946701, 0.24410831928253174, 0.21180805563926697, 0.0510387197136879, -0.09292618930339813], [-0.0724778026342392, -0.12862512469291687, -0.33659374713897705, -0.5057792663574219, -1.0719597339630127], [-0.5030379295349121, -0.9715756773948669, -1.233314871788025, -1.3927149772644043, -1.7659590244293213]]], [[[0.007189812138676643, -0.10783464461565018, -0.5572587847709656, -1.2313129901885986, -1.576060175895691], [0.2732654809951782, 0.12487645447254181, -0.5587570667266846, -1.0412249565124512, -1.2645862102508545], [0.58102947473526, 0.35589662194252014, 0.07082808017730713, -0.48615288734436035, -0.67229163646698], [0.9047557711601257, 0.6562385559082031, 0.26029592752456665, 0.03848074749112129, -0.026788577437400818], [1.201669454574585, 1.1097381114959717, 1.0039088726043701, 0.48315900564193726, 0.5785467028617859]]], [[[0.7165494561195374, 0.3694443106651306, 0.07857688516378403, -0.4177679121494293, -0.5439882278442383], [0.5270375609397888, 0.36323484778404236, 0.07114965468645096, -0.3246670365333557, -0.6381986141204834], [0.4527134299278259, 0.5395686030387878, 0.14363308250904083, -0.5091776847839355, -0.6867393851280212], [0.5216099619865417, 0.5246401429176331, 0.16949735581874847, -0.5352830290794373, -0.9200732707977295], [0.7616079449653625, 0.12940548360347748, -0.10629399120807648, -0.5752069354057312, -1.269722819328308]]], [[[0.18996849656105042, 0.16206657886505127, 0.19848090410232544, 0.267691433429718, 0.3438186049461365], [0.11993549019098282, 0.2112056314945221, 0.014691423624753952, 0.10838501155376434, 0.24748511612415314], [-0.11000383645296097, -0.22076460719108582, 0.15955442190170288, 0.23173192143440247, 0.28822800517082214], [-0.15165719389915466, -0.12692628800868988, -0.16774658858776093, 0.1699780374765396, 0.2017347514629364], [-0.3937252163887024, -0.4591042101383209, -0.08469121158123016, 0.12199755758047104, 0.03516197204589844]]], [[[-0.19705134630203247, -0.24066774547100067, -0.012758097611367702, -0.1061055138707161, -0.21380729973316193], [-0.20201171934604645, 0.10685321688652039, 0.030863912776112556, -0.1876807063817978, -0.1901034414768219], [0.008127901703119278, 0.014780080877244473, -0.009144461713731289, -0.19637686014175415, 0.14966340363025665], [0.19052566587924957, 0.190471351146698, -0.06254395842552185, 0.03157265484333038, -0.00786294974386692], [0.357643187046051, 0.42715010046958923, 0.15515001118183136, 0.2513681650161743, 0.30997785925865173]]], [[[0.12634913623332977, -0.003642606781795621, -0.18308261036872864, -0.053572654724121094, -0.016646409407258034], [0.06436538696289062, 0.01159062422811985, -0.03457663208246231, -0.05849404260516167, -0.1476462334394455], [-0.1766190081834793, -0.039879512041807175, -0.1370399296283722, -0.07561209052801132, 0.19563107192516327], [-0.09690704196691513, -0.007211828138679266, -0.1874813586473465, 0.15758159756660461, -0.002686667488887906], [0.04869341850280762, 0.17670564353466034, 0.07978940010070801, -0.13939855992794037, -0.08226501941680908]]], [[[-1.3991678953170776, -0.6952157020568848, -1.075743317604065, -1.571594476699829, -1.6876728534698486], [-1.3926876783370972, -0.2372204065322876, -0.5966969728469849, -0.8522430062294006, -0.9996145367622375], [-1.5688282251358032, -0.04762638360261917, -0.8320305943489075, -0.8912869095802307, -0.7965368628501892], [-1.327593445777893, -0.28629058599472046, -0.5188162326812744, -0.7534639835357666, -1.0025091171264648], [-1.2334671020507812, -0.005174961406737566, -0.4138523042201996, -0.5469524264335632, -0.871893584728241]]], [[[-1.060064435005188, -0.564144492149353, -0.4141829013824463, -0.4125349521636963, -0.4216965436935425], [-1.2895617485046387, -0.2886981964111328, -0.32935675978660583, -0.2924764156341553, -0.46413061022758484], [-1.4079248905181885, -0.4081794321537018, -0.5216701626777649, -0.21255281567573547, -0.09778884053230286], [-1.6512737274169922, -0.46819445490837097, -0.18709996342658997, -0.08262606710195541, -0.17654043436050415], [-1.216183066368103, -0.5509629845619202, -0.23225188255310059, -0.3702930212020874, -0.17969569563865662]]], [[[0.02845136821269989, -0.12829998135566711, 0.12386694550514221, -0.1831008642911911, -0.17954786121845245], [0.1308557242155075, -0.061422448605298996, 0.13051056861877441, 0.026261359453201294, -0.12513642013072968], [-0.17505362629890442, 0.016919339075684547, -0.17895931005477905, 0.020710742101073265, -0.07650315016508102], [0.13163970410823822, -0.10882405936717987, -0.20614024996757507, -0.14722304046154022, -0.11045850813388824], [0.10816312581300735, -0.03470475599169731, -0.09796364605426788, -0.17068395018577576, 0.1648212969303131]]], [[[0.26753100752830505, 0.34690573811531067, 0.011504467576742172, 0.05386187136173248, -0.2260209619998932], [0.05756496638059616, -0.05634118244051933, -0.005020228214561939, -0.20279662311077118, -0.10047004371881485], [-0.156894713640213, 0.05714355409145355, -0.11035818606615067, 0.0816141739487648, -0.29760512709617615], [0.20525400340557098, 0.12131306529045105, -0.08113525062799454, 0.14030757546424866, -0.223810613155365], [0.36590203642845154, 0.33969616889953613, 0.39323046803474426, 0.2663041949272156, -0.11194159835577011]]], [[[-0.09339239448308945, -0.2515087425708771, -0.21800702810287476, 0.0802835077047348, 0.17660856246948242], [-0.05289978161454201, -0.07863329350948334, 0.08169223368167877, 0.061335042119026184, 0.10711481422185898], [-0.1713038831949234, -0.16962940990924835, -0.05780069902539253, 0.15277999639511108, 0.32152512669563293], [-0.08818787336349487, 0.0026439386419951916, 0.28146788477897644, 0.37563279271125793, 0.3626485764980316], [-0.0958285853266716, 0.10580762475728989, 0.47044047713279724, 0.45164352655410767, 0.4693772792816162]]], [[[-0.02451757714152336, 0.17560073733329773, 0.2515575587749481, 0.48749077320098877, 0.37807878851890564], [0.14893408119678497, -0.0006433619419112802, 0.2508513033390045, 0.4083482027053833, 0.5830656290054321], [-0.2734132409095764, -0.19599774479866028, 0.2703434228897095, 0.08661947399377823, 0.05011501908302307], [-0.4450909495353699, -0.22567208111286163, 0.15521641075611115, 0.026047423481941223, 0.14321021735668182], [-0.17846715450286865, -0.3817976117134094, 0.07492092996835709, -0.17854346334934235, -0.00888549629598856]]], [[[0.29860639572143555, 0.12873205542564392, 0.2194996029138565, 0.11948338150978088, -0.017028234899044037], [0.42019253969192505, 0.3530629575252533, 0.2793695032596588, -0.0019495767774060369, -0.1268402487039566], [0.1882445067167282, 0.2591712474822998, 0.030083399266004562, 0.08574241399765015, -0.33544573187828064], [0.17087967693805695, 0.2942550480365753, 0.15458565950393677, -0.09854959696531296, -0.3428647816181183], [-0.09074930846691132, 0.1391822248697281, 0.15759238600730896, 0.027875740081071854, -0.33049994707107544]]], [[[0.20143435895442963, -0.3804382085800171, -0.5988472104072571, -0.5848581194877625, -0.8337226510047913], [-0.04870467260479927, -0.5080252289772034, -0.6432830691337585, -0.5591295957565308, -0.6740449666976929], [0.18209800124168396, -0.404990017414093, -0.4782698452472687, -0.715737521648407, -1.3608663082122803], [-0.02542896568775177, -0.3478163182735443, -0.6899681687355042, -1.1319063901901245, -1.6216422319412231], [-0.04803246632218361, -0.24507851898670197, -0.7780951261520386, -1.0712755918502808, -1.5615428686141968]]], [[[-0.3258468806743622, -0.22065481543540955, -0.45309823751449585, -0.19907748699188232, -0.01866137981414795], [-0.021094270050525665, -0.40194663405418396, -0.10958950966596603, -0.11750693619251251, -0.19322243332862854], [-0.08675352483987808, 0.05327204614877701, -0.24843044579029083, -0.21703295409679413, 0.17763790488243103], [0.2791012227535248, 0.20117142796516418, 0.189090296626091, 0.0451432541012764, 0.26335087418556213], [0.5736928582191467, 0.5767011642456055, 0.5120119452476501, 0.45937487483024597, 0.31197014451026917]]], [[[-0.5480049848556519, -0.25736260414123535, 0.18283112347126007, 0.3736828565597534, 0.25086018443107605], [-0.37423792481422424, -0.34180766344070435, 0.06332142651081085, 0.40137040615081787, 0.35152557492256165], [-0.32184046506881714, -0.059082262217998505, 0.07675102353096008, 0.2412242740392685, 0.15286731719970703], [-0.2167075127363205, 0.1992446333169937, 0.1253797858953476, 0.4866064786911011, 0.14673465490341187], [0.07200095057487488, 0.4412517249584198, 0.5424097180366516, 0.6319434642791748, 0.6727451682090759]]], [[[0.006495996378362179, -0.10207418352365494, -0.43097934126853943, -0.5255386233329773, -0.23363742232322693], [-0.38592320680618286, -0.15007077157497406, -0.3910895884037018, -0.3211192786693573, -0.3947466015815735], [-0.7423895597457886, -0.47237929701805115, 0.01784089207649231, 0.1300685554742813, 0.18983039259910583], [-1.2845782041549683, -0.3210417926311493, 0.17036914825439453, 0.189586341381073, 0.28121891617774963], [-1.4108996391296387, -0.5797341465950012, 0.2330557405948639, 0.3615887463092804, 0.41148149967193604]]], [[[0.2623462677001953, 0.3265017569065094, 0.04985831305384636, 0.15068982541561127, -0.1480795294046402], [0.04363752529025078, 0.24522829055786133, 0.23862218856811523, 0.12117703258991241, 0.1423310488462448], [-0.05785312503576279, -0.05965114012360573, 0.24904070794582367, 0.08267352730035782, -0.16361118853092194], [0.08680309355258942, -0.0023983060382306576, 0.17254653573036194, -0.052794184535741806, -0.22795037925243378], [-0.06167641282081604, -0.06554894149303436, 0.1719886064529419, 0.08330396562814713, -0.15369316935539246]]]], "accuracies": 0.8729}, "4": {"scales_p1": [0.8981018662452698, 0.4964200258255005, 0.6391176581382751, 0.24890491366386414, 2.5506772994995117, 0.7730713486671448, 1.0, 1.0, 1.0, 0.6005640029907227, 1.0, 0.6748989820480347, 1.386446237564087, 1.0, 0.476678729057312, 0.6337416768074036, 1.3974947929382324, 1.568810224533081, 3.3132684230804443, 1.6672029495239258], "scales_p2": [1.0, 0.8295759558677673, 0.8138499855995178, 0.9717020988464355, 1.0, 1.0093693733215332, 1.7368428707122803, 0.8599769473075867, 2.2082679271698, 1.8674067258834839, 2.055903434753418, 0.9764524698257446, 1.0, 1.2732356786727905, 1.2855178117752075, 0.9186567068099976, 0.7379337549209595, 1.0898157358169556, 1.3183273077011108, 0.8403375744819641, 1.1641484498977661, 1.0, 1.2088844776153564, 1.1272516250610352, 0.9440203905105591, 1.9621013402938843, 0.7631987929344177, 1.0, 0.5783219933509827, 1.0697170495986938, 2.4605519771575928, 1.169776439666748, 1.3238152265548706, 0.9024927616119385, 0.8873401284217834, 0.9822294116020203, 1.7845714092254639, 1.0676480531692505, 1.327027440071106, 1.6680949926376343, 1.2867941856384277, 1.2750837802886963, 1.0, 1.8138930797576904, 1.9954866170883179, 0.8716592192649841, 0.6919005513191223, 1.488850474357605, 1.0784732103347778, 0.8819293975830078], "conv_weights": [[[[-0.23659555613994598, -0.24839675426483154, -0.05208524689078331, 0.2520950436592102, 0.30994120240211487], [-0.10379014164209366, -0.041428111493587494, 0.06820730865001678, 0.21095968782901764, 0.18051734566688538], [-0.30851173400878906, -0.15950050950050354, 0.1331159472465515, 0.22686785459518433, 0.3995702862739563], [-0.14748723804950714, -0.15102818608283997, -0.1620883047580719, 0.26041868329048157, 0.48034220933914185], [-0.26010000705718994, 0.03472083806991577, 0.23422589898109436, 0.05861653387546539, 0.46980613470077515]]], [[[-0.7301913499832153, -0.6788561940193176, -0.5645574331283569, -1.0139575004577637, -1.2027034759521484], [-0.9391823410987854, -0.7070392966270447, -0.7080367803573608, -0.9232704043388367, -0.9788968563079834], [-0.5007672905921936, -0.3340674340724945, -0.0009883473394438624, -0.05641555041074753, -0.5695333480834961], [0.08937117457389832, 0.3733583092689514, 0.5897002816200256, 0.2323034554719925, 0.17219819128513336], [0.2790813744068146, 0.48368266224861145, 0.81844162940979, 0.7420969009399414, 0.3939041197299957]]], [[[0.3336032032966614, 0.19614487886428833, -0.06588026881217957, 0.12549374997615814, 0.26281386613845825], [0.2718892991542816, 0.13996173441410065, 0.05298466980457306, 0.2211560755968094, 0.060270290821790695], [-0.0783221498131752, 0.17869530618190765, -0.0341641865670681, 0.10928903520107269, 0.20203456282615662], [-0.003110597375780344, -0.08715374767780304, -0.09200975298881531, -0.15772908926010132, 0.1020336002111435], [0.0793161690235138, -0.16649970412254333, -0.07924329489469528, 0.13187244534492493, 0.07714458554983139]]], [[[-0.8058382272720337, -0.8762021660804749, -0.9918384552001953, -1.2594246864318848, -1.3409329652786255], [-0.7337378263473511, -0.7249117493629456, -0.8141493201255798, -0.902497410774231, -1.0015517473220825], [-1.0303828716278076, -0.9003624320030212, -0.6661252379417419, -0.7430651783943176, -0.9406683444976807], [-1.5460269451141357, -1.3400317430496216, -0.8984470367431641, -1.087318778038025, -1.0786100625991821], [-1.6721421480178833, -1.16710364818573, -0.9078585505485535, -0.9563194513320923, -1.0106576681137085]]], [[[0.8942407369613647, 0.5781669020652771, 0.7824388146400452, 0.5739742517471313, 0.568337619304657], [0.6230557560920715, 0.7011249661445618, 0.2773309648036957, 0.3914180099964142, -0.047223515808582306], [0.24291552603244781, 0.40462034940719604, 0.03688667714595795, -0.19389048218727112, -0.34029054641723633], [0.12818340957164764, -0.00886648427695036, -0.2399631291627884, -0.5305851101875305, -0.944646418094635], [-0.40939849615097046, -0.529205322265625, -0.9931209087371826, -1.1142759323120117, -1.487714171409607]]], [[[0.25921526551246643, 0.16929586231708527, 0.16106611490249634, 0.09322579950094223, 0.1675368994474411], [-0.1338285505771637, 0.03850645199418068, 0.18960793316364288, 0.03579549118876457, 0.05275518819689751], [0.18961624801158905, 0.027123648673295975, -0.21001800894737244, -0.252986878156662, -0.10335320979356766], [0.18514509499073029, 0.10851319879293442, 0.1018097847700119, 0.11798002570867538, 0.011167441494762897], [-0.10880991816520691, 0.23573961853981018, -0.12024163454771042, -0.15712235867977142, -0.2601996660232544]]], [[[-0.14219044148921967, -0.11484849452972412, -0.09105772525072098, -0.06175713986158371, -0.1872709095478058], [0.08362342417240143, -0.06867451965808868, 0.048918530344963074, -0.06364879012107849, -0.1369611769914627], [-0.1040407046675682, 0.1030479446053505, -0.0420716367661953, 0.17176184058189392, 0.03319231793284416], [0.11790914088487625, 0.02930234931409359, 0.17674358189105988, 0.13114385306835175, -0.10735712200403214], [-0.08830683678388596, 0.007953147403895855, 0.01983620598912239, 0.10697506368160248, -0.031055789440870285]]], [[[-0.12848682701587677, 0.014744020067155361, 0.04248671606183052, -0.10393472015857697, 0.0817936435341835], [-0.1840040683746338, -0.059012651443481445, -0.17549028992652893, -0.1931186020374298, -0.17566967010498047], [-0.16469049453735352, -0.034940291196107864, -0.15816088020801544, 0.17252762615680695, -0.016712117940187454], [-0.15413187444210052, 0.11055135726928711, 0.14045457541942596, 0.11358954757452011, -0.15794281661510468], [-0.18365049362182617, 0.08467908203601837, -0.1635204553604126, -0.13143396377563477, 0.18982823193073273]]], [[[0.09731985628604889, -0.19617252051830292, 0.15268002450466156, 0.1309831142425537, 0.1474771350622177], [-0.11588975787162781, -0.1441555917263031, -0.07140319794416428, 0.01764596439898014, -0.18853896856307983], [-0.16062740981578827, -0.21181704103946686, -0.018714170902967453, -0.05661245435476303, 0.08489163964986801], [0.14220228791236877, -0.11671023815870285, -0.1987697184085846, -0.09027396887540817, 0.14507541060447693], [0.14252367615699768, -0.20268437266349792, 0.09802121669054031, -0.1493016481399536, 0.07555099576711655]]], [[[0.278810977935791, 0.184349924325943, 0.06747587025165558, -0.02380508929491043, -0.3094976544380188], [0.12033611536026001, 0.17862945795059204, -0.1610662192106247, -0.08053118735551834, -0.2921605408191681], [0.25228339433670044, -0.06096966937184334, 0.12965409457683563, -0.05640806257724762, -0.028126776218414307], [0.2792530655860901, 0.09934855252504349, 0.22122539579868317, -0.06847604364156723, -0.1435898095369339], [0.5173779726028442, 0.3675377070903778, 0.2621541917324066, 0.23392511904239655, 0.03149113059043884]]], [[[-0.0021396875381469727, -0.18673527240753174, -0.1793450564146042, 0.08103759586811066, 0.14991965889930725], [-0.029116297140717506, -0.03374352678656578, 0.03783857822418213, 0.19957363605499268, -0.14666259288787842], [0.041723158210515976, -0.1155174970626831, -0.041414644569158554, -0.1835913509130478, 0.16526035964488983], [-0.10582416504621506, 0.1626942902803421, -0.029506875202059746, -0.014665675349533558, 0.004201412200927734], [0.07310800999403, -0.13166756927967072, -0.13632486760616302, -0.06497955322265625, -0.09520556777715683]]], [[[0.2783748209476471, 0.19562490284442902, 0.1930026113986969, 0.027286501601338387, -0.05543142557144165], [0.24291864037513733, 0.2459656298160553, 0.0840592160820961, 0.06784874200820923, -0.2702445685863495], [0.1468050330877304, -0.10538375377655029, -0.07297385483980179, 0.13455462455749512, 0.07459069043397903], [0.2348545491695404, 0.06122813746333122, 0.15585780143737793, -0.1686132848262787, -0.019086332991719246], [-0.04189442843198776, 0.17531993985176086, 0.179056316614151, -0.1841946244239807, -0.2666725218296051]]], [[[-0.3090342879295349, -0.32632285356521606, -0.5029305219650269, -0.5824980735778809, -0.4797935485839844], [-0.18544305860996246, -0.04499611631035805, -0.13101662695407867, -0.1294969618320465, -0.4313485026359558], [0.34706297516822815, -0.015147952362895012, 0.05295630171895027, -0.10666545480489731, -0.12214558571577072], [0.7436581254005432, 0.5901510715484619, 0.4201003611087799, 0.2923722565174103, 0.14520156383514404], [0.8458441495895386, 0.8476546406745911, 0.5223382115364075, 0.30210328102111816, 0.5337148904800415]]], [[[0.051791101694107056, 0.09406044334173203, -0.15890343487262726, -0.20626382529735565, 0.17119643092155457], [-0.03975750878453255, -0.18653619289398193, 0.09109701961278915, -0.0768323764204979, 0.07408053427934647], [0.08396919071674347, -0.1126536875963211, 0.005059299990534782, 0.048202939331531525, 0.10175202041864395], [-0.08482372760772705, -0.034767113626003265, 0.014399338513612747, 0.14092454314231873, -0.16308338940143585], [0.09023480862379074, 0.008323470130562782, 0.08942124992609024, 0.041097939014434814, -0.08570985496044159]]], [[[0.11498932540416718, 0.003499306971207261, -0.4057791829109192, -0.5591347813606262, -1.0187134742736816], [-0.16790136694908142, 0.097726009786129, -0.06705094873905182, -0.679282546043396, -1.0115196704864502], [-0.4777917265892029, -0.24414141476154327, -0.5488214492797852, -0.9612551927566528, -0.9741191864013672], [-0.8932691812515259, -0.9737112522125244, -1.1345386505126953, -1.1435295343399048, -1.3205313682556152], [-1.206748127937317, -1.365665316581726, -1.3193819522857666, -1.2989089488983154, -1.410688042640686]]], [[[-0.21979963779449463, 0.10933232307434082, 0.12106093764305115, 0.2714802622795105, 0.34383073449134827], [-0.10400623083114624, 0.05911253020167351, 0.0034462641924619675, 0.1476343870162964, 0.2794875204563141], [-0.019508717581629753, -0.0652223601937294, -0.2002527117729187, -0.02632005512714386, 0.008282407186925411], [-0.16462254524230957, 0.133596733212471, -0.15513810515403748, -0.13688836991786957, 0.19823992252349854], [0.07794483006000519, 0.03365885466337204, 0.16493923962116241, 0.17274092137813568, -0.07971198856830597]]], [[[-0.5716838240623474, -0.482774019241333, -0.11257084459066391, -0.13772208988666534, -0.14108143746852875], [-0.5324188470840454, -0.48484939336776733, -0.3386096954345703, -0.12746700644493103, 0.15786243975162506], [-0.08316291868686676, -0.023883439600467682, 0.0961628407239914, 0.10966948419809341, 0.3589804470539093], [0.01998092047870159, 0.014519969932734966, 0.26964956521987915, 0.6217128038406372, 0.7297697067260742], [0.33621495962142944, 0.5753111243247986, 0.629197895526886, 0.7500543594360352, 1.0480358600616455]]], [[[-0.10427157580852509, 0.07270065695047379, 0.19958871603012085, 0.26554015278816223, 0.4519202709197998], [-0.3093549311161041, -0.32273298501968384, 0.15020348131656647, 0.018351055681705475, 0.5906893014907837], [-0.2864009737968445, -0.3710632920265198, -0.15675005316734314, 0.20235751569271088, 0.23325249552726746], [-0.2619534432888031, -0.08622388541698456, -0.03397418558597565, 0.3451114594936371, 0.3900073766708374], [-0.38107579946517944, -0.3476070463657379, -0.1729683130979538, 0.36663177609443665, 0.379593163728714]]], [[[0.6020688414573669, 0.40775054693222046, 0.511932909488678, 0.7978883981704712, 0.9778659343719482], [0.30917590856552124, 0.15123827755451202, 0.5765736699104309, 0.618958592414856, 0.6113637089729309], [-0.2015642672777176, -0.13264478743076324, 0.1953534036874771, 0.13977837562561035, 0.18419426679611206], [-0.38814887404441833, -0.4312410354614258, -0.37347814440727234, -0.36278730630874634, -0.11334166675806046], [-0.9289469122886658, -0.8898353576660156, -0.7730796337127686, -0.652290940284729, -0.33403342962265015]]], [[[0.026197323575615883, 0.09994637221097946, 0.2767464220523834, -0.007855127565562725, 0.019891908392310143], [0.07151804119348526, 0.19267664849758148, 0.2260473221540451, 0.1725081503391266, 0.222314715385437], [-0.17013759911060333, 0.02860298380255699, 0.16290999948978424, 0.08027457445859909, 0.26440778374671936], [-0.0921853706240654, 0.3343525826931, 0.33015909790992737, 0.48692867159843445, 0.06802870333194733], [-0.029121320694684982, 0.27830350399017334, 0.3216262459754944, 0.6696524024009705, 0.4169541895389557]]]], "accuracies": 0.863}}